tree
version=v4
num_class=1
num_tree_per_iteration=1
label_index=0
max_feature_idx=40
objective=binary sigmoid:1
feature_names=f0 f1 f2 f3 f4 f5 f6 f7 f8 f9 f10 f11 f12 f13 f14 f15 f16 f17 f18 f19 f20 f21 f22 f23 f24 f25 f26 f27 f28 f29 f30 f31 f32 f33 f34 f35 f36 f37 f38 f39 f40
feature_infos=[0.0001678999979048:119158] [3.6598546557797818e-06:1823.3958740234375] [3.6598546557797818e-06:1823.3958740234375] [0.00010551938839663833:0.22362957741328016] none [0.00016749999485909939:118849.8984375] [0.00075805480016956459:5.9309363022850281] [70:100] [-1:1] [-1:1] [0:6] [23.261087417602539:96.096694946289062] [8.4603471755981445:82.280418395996094] [0:45551.32421875] none [0.053427322797903701:0.93211039234241821] [0.053427322797903701:0.93211039234241821] [2.9354240275144836e-32:0.91736708950465085] [0:3] [0:1] [0.053427322797903701:0.93211039234241821] [0.053427322797903701:0.93211039234241821] [369.35870361328125:33095839700] [191764.84189242125:6983679778.8248434] [-0.29699784517288208:2.8824348449707031] [-0.40018138289451599:5.8971953392028809] [-0.54668092727661133:19.203788757324219] [-7.4834399223327637:24.029890060424805] [-6.7881989479064941:1.8905102014541626] [-0.64099311828613281:2.8824348449707031] [-0.010405739769339561:0.0022628700826317072] [0:0.010405739769339561] [-10.311781883239746:5.5110154151916504] [-2.2455086708068848:0.52963936328887939] [-91.766998291015625:31.190668106079102] none none [0:1] [0:1] [0:1] [0:1]
tree_sizes=3334 3463 3469 3470 3463 3469 3458 3460 3464 3463 3458 3459 3468 3470 3471 3439 3481 3472 3459 3464 3489 3483 3474 3483 3482 3501 3477 3487 3479 3465 3486 3469 3475 3479 3458 3481 3475 3487 3485 3483 3506 3503 3497 3469 3458 3472 3460 3494 3475 3495 3479 3473 3472 3497 3478 3479 3479 3485 3481 3481 3492 3451 3489 3488 3464 3480 3490 3472 3493 3498 3460 3479 3478 3479 3489 3488 3478 3450 3485 3482 3458 3491 3489 3478 3473 3493 3495 3491 3489 3474 3482 3490 3497 3497 3518 3495 3474 3495 3482 3478 3470 3473 3487 3498 3495 3457 3489 3495 3496 3498 3504 3498 3493 3491 3507 3481 3483 3469 3486 3481 3498 3472 3490 3519 3492 3472 3478 3510 3479 3478 3477 3492 3471 3482 3493 3484 3491 3443 3500 3501 3482 3490 3498 3473 3481 3473 3491 3501 3496 3484 3508 3491 3465 3485 3488 3488 3491 3488 3496 3479 3496 3501 3502 3489 3484 3480 3489 3494 3483 3494 3513 3489 3482 3494 3493 3490 3499 3506 3474 3486 3481 3488 3491 3472 3488 3471 3489 3490 3465 3497 3497 3508 3472 3477 3476 3496 3497 3479 3482 3495 3480 3486 3506 3480 3501 3481 3489 3503 3506 3508 3458 3494 3496 3495 3488 3492 3498 3508 3500 3479 3502 3474 3479 3498 3489 3502 3504 3494 3478 3474 3510 3472 3495 3477 3518 3484 3511 3511 3476 3480 3505 3507 3485 3498 3499 3494 3489 3498 3492 3492 3495 3482 3472 3505 3500 3478 3500 3473 3491 3493 3492 3495 3495 3497 3496 3485 3509 3490 3503 3502 3489 3505 3479 3498 3511 3509 3496 3499 3492 3481 3502 3478 3500 3487 3473 3481 3474 3497 3494 3503 3502 3470 3494 3511 3503 3525 3499 3492 3480 3490 3494 3495 3518 3474 3502 3494 3504 3489 3447 3502 3494 3507 3516 3503 3491 3502 3488 3507 3481 3491 3485 3489 3468 3477 3495 3491 3473 3511 3507 3504 3499 3483 3470 3451 3493 3487 3510 3498 3486 3481 3458 3497 3487 3483 3480 3512 3475 3515 3480 3483 3499 3512 3498 3497 3466 3483 3490 3502 3492 3492 3495 3498 3480 3472 3475 3472 3481 3495 3490 3514 3487 3480 3476 3507 3500 3516 3493 3502 3502 3485 3488 3473 3473 3478 3481 3504 3480 3482 3484 3494 3461 3498 3468 3489 3477 3478 3472 3491 3495 3487 3519 3478 3501 3486 3476 3483 3495 3542 3506 3495 3502 3505 3485 3477 3513 3472 3515 3485 3494 3512 3489 3520 3506 3502 3500 3520 3523 3492 3516 3470 3490 3499 3489 3493 3503 3495 3482 3476 3503 3502 3511 3526 3479 3528 3513 3482 3487 3503 3525 3522 3493 3483 3514 3488 3493 3502 3485 3477 3502 3486 3515 3518 3495 3524 3500 3511 3528 3517 3485 3496 3507 3504 3497 3504 3508 3513 3515 3485 3496 3501 3504 3496 3491 3526 3500 3524 3516 3530 3501 3528 3507 3476 3491 3515 3518 3502 3509 3503 3498 3484 3496 3502 3524 3520 3484 3465 3476 3499 3509 3482 3475 3475 3505 3489 3452 3475 3497 3505 3495 3494 3512 3521 3505 3508 3489 3516 3522 3493 3492 3493 3504 3496 3463 3507 3505 3524 3483 3488 3498 3528 3480 3509 3503 3509 3506 3493 3498 3526 3503 3521 3502 3485 3517 3531 3498 3495 3489 3555 3491 3493 3522 3496 3490 3505 3517 3486 3500 3523 3513 3518 3504 3497 3513 3510 3500 3521 3492 3524 3490 3508 3503 3473 3495 3488 3498 3506 3482 3512 3494 3501 3522 3505 3486 3505 3482 3479 3485 3516 3512 3507

Tree=0
num_leaves=31
num_cat=0
split_feature=11 7 15 17 25 10 15 17 12 7 29 11 24 11 17 6 28 12 9 27 9 15 15 11 6 3 6 12 1 5
split_gain=78.3915 30.5961 26.4081 20.8997 19.2842 20.2477 21.5444 19.6133 18.7041 20.7926 18.4112 17.9296 15.2127 17.3035 14.7593 13.1494 12.899 12.6451 12.4287 10.8246 10.4197 10.2802 9.86985 9.79744 10.0079 9.26681 8.80784 10.5294 8.55738 9.05098
threshold=70.220611572265639 97.049911499023452 0.1408666474239236 0.010825298791106401 0.064864724874496474 2.5000000000000004 0.36489858396091734 0.16947385183423561 33.094356536865241 82.131305694580092 -0.008388238959014414 50.024892807006843 0.12067968025803567 75.02582168579103 0.8681593090205274 0.35971445607945501 -0.139954999089241 18.442219734191898 -0.37940952255126015 -0.69023221731185902 0.37940952255126048 0.29968115483975705 0.23887801746445977 72.842285156250014 0.30245651469961837 0.01559515597673845 0.050418056497787009 22.065760612487797 0.125347875058651 1.5164699554443362
decision_type=2 2 2 2 2 2 2 2 2 2 2 2 2 2 2 2 2 2 2 2 2 2 2 2 2 2 2 2 2 2
left_child=1 2 19 -2 5 6 18 -8 12 -10 -7 -3 13 17 16 -13 -12 -5 -4 -1 -9 22 -20 -11 -25 -15 -21 -28 29 -18
right_child=3 11 4 8 -6 10 7 20 9 23 14 15 -14 25 -16 -17 28 -19 21 26 -22 -23 -24 24 -26 -27 27 -29 -30 -31
leaf_value=0.26132338580552983 0.30683106643100722 0.30733857524439107 0.21432443873686607 0.31369864696732114 0.2329098440900281 0.24121574148877026 0.28731662617636528 0.23419527664900078 0.24054700438697371 0.24963131705682398 0.29913942174788338 0.27268199173932745 0.24643122852054886 0.28324490615710995 0.23921762227599344 0.2307471942748309 0.26992341287242361 0.26994541188461407 0.24120094935836689 0.20113736530943049 0.26590875219074739 0.2164383566273525 0.28324490615710995 0.29021491860368581 0.26138771054610588 0.31857911938332034 0.25355898653692666 0.22181352792480091 0.25135610798164265 0.30040008120057282
leaf_weight=28.182254329323769 57.497347265481949 32.520929247140884 52.034488171339035 19.791644811630249 86.814033299684525 63.816324591636658 48.109183833003044 56.525529056787491 63.875540092587471 32.724311456084251 44.556708946824074 121.25445635616779 22.92141193151474 27.784599512815475 33.198035463690758 22.101049348711967 152.70153491199017 99.703427791595459 39.423179566860199 26.059605896472931 47.804907068610191 22.329484507441521 21.610244065523148 86.47468364238739 46.189462438225746 55.86482135951519 41.114693388342857 71.623433530330658 49.61507947742939 28.985535636544228
leaf_count=133 288 163 230 100 394 293 235 257 293 152 221 581 106 135 152 100 729 476 181 113 227 99 105 424 218 284 192 320 231 144
internal_value=0.262304 0.254722 0.251049 0.278426 0.255065 0.257976 0.248013 0.260905 0.274839 0.264776 0.265666 0.273821 0.285045 0.289401 0.270715 0.266217 0.274505 0.277192 0.233499 0.233072 0.248727 0.245467 0.256088 0.274134 0.280178 0.306843 0.227335 0.233391 0.26976 0.274786
internal_weight=1603.21 1090.38 914.504 512.827 747.524 660.71 287.837 152.44 455.33 229.264 372.873 175.876 226.066 203.144 309.057 143.356 275.859 119.495 135.397 166.98 104.33 83.3629 61.0334 165.388 132.664 83.6494 138.798 112.738 231.302 181.687
internal_count=7576 5100 4256 2476 3498 3104 1334 719 2188 1087 1770 844 1101 995 1477 681 1325 576 615 758 484 385 286 794 642 419 625 512 1104 873
is_linear=0
shrinkage=1


Tree=1
num_leaves=31
num_cat=0
split_feature=17 18 15 10 17 27 17 9 28 15 13 28 13 9 13 0 15 24 5 27 17 29 13 15 9 10 17 25 13 0
split_gain=36.9845 39.6739 15.4353 18.688 21.5751 12.8445 12.1462 12.0939 11.5516 11.8514 11.5379 11.0064 8.90619 18.6274 10.39 8.09605 7.69457 7.66196 8.50419 12.9834 7.57187 7.27259 13.7527 8.08514 7.25861 7.48657 8.88122 7.23879 6.72287 6.66192
threshold=0.010825298791106401 1.5000000000000002 0.13908746537273606 2.5000000000000004 0.15765555193613548 0.90075561404228222 0.89159136665690408 0.37940952255126048 -0.139954999089241 0.29565600861291191 8.5332484245300311 0.23187882453203204 2.6795210838317876 0.1294095225512602 38.969203948974616 0.95050001144409191 0.22998762056457314 -0.01151562901213765 9.0630002021789569 1.2255709171295168 0.83088383644593844 0.0077967005781829366 18.95725250244141 0.45019582904648409 -0.78656609248549325 5.5000000000000009 0.81848244167362716 0.013484966475516559 14.561247348785402 0.5538499951362611
decision_type=2 2 2 2 2 2 2 2 2 2 2 2 2 2 2 2 2 2 2 2 2 2 2 2 2 2 2 2 2 2
left_child=1 10 12 4 5 -4 8 16 -5 17 -1 20 13 -2 -14 -9 27 -10 19 24 -11 22 29 28 -19 26 -26 -6 -23 -18
right_child=2 -3 3 6 7 -7 -8 15 9 11 -12 -13 14 -15 -16 -17 21 18 -20 -21 -22 23 -24 -25 25 -27 -28 -29 -30 -31
leaf_value=0.058719803355909928 -0.0099086052260339529 -0.017770593226994501 0.029076627678048236 0.010150944375074054 -0.028128602088107392 -0.018266105856669317 -0.038895604941033085 -0.0058690891376743937 -0.028390297952147675 -0.014581875548293511 0.017439509550195704 0.006989365283194768 -0.014613496356398515 -0.068712508644702283 -0.037754539777616468 -0.028162347271226379 -0.031207275760638295 -0.0059059457367210784 -0.019350851243665184 -0.0079698192916202223 -0.035034998255701402 0.011671947564601937 -0.0033227812033036126 -0.035352915347115481 0.057233368053484626 0.0060587728143569625 0.013508158201661589 -0.062072611609466789 -0.021844453514786675 -0.062505038347989025
leaf_weight=34.964962661266327 23.266754597425461 57.34818971157074 32.215329647064209 90.732948407530785 28.912502035498619 25.801060080528259 30.140214368700981 107.50258523225784 21.842118173837662 254.31440648436546 32.811888173222542 50.33791971206665 160.86937768757343 31.975338876247406 69.444641783833504 65.56274288892746 32.022895216941833 21.792792975902557 36.139865696430206 77.385238230228424 55.044769570231438 29.166814461350441 23.280856937170029 36.588963612914085 27.619817107915878 27.425449043512344 20.038632988929749 34.3870540112257 30.720168590545654 36.248645111918449
leaf_count=182 110 270 161 443 133 121 137 512 101 1199 162 244 756 139 316 303 147 104 169 368 252 142 111 167 143 133 98 151 143 159
internal_value=-0.013266 0.0128371 -0.0154717 -0.0129765 -0.0205764 0.00802236 -0.00783319 -0.024486 -0.00646178 -0.00900819 0.0387353 -0.014693 -0.0259156 -0.0439456 -0.021591 -0.0143145 -0.0314901 -0.000203536 0.00272257 0.00730034 -0.0182211 -0.026414 -0.0365084 -0.0168349 0.0194982 0.0268716 0.0388485 -0.0465685 -0.00552093 -0.0478248
internal_weight=1605.9 125.125 1480.78 1195.22 482.41 58.0164 712.814 424.393 682.674 591.941 67.7769 359.697 285.556 55.2421 230.314 173.065 251.328 232.244 210.402 174.262 309.359 188.028 91.5524 96.4759 96.8767 75.0839 47.6585 63.2996 59.887 68.2715
internal_count=7576 614 6962 5641 2250 282 3391 1968 3254 2811 344 1695 1321 249 1072 815 1153 1116 1015 846 1451 869 417 452 478 374 241 284 285 306
is_linear=0
shrinkage=0.05


Tree=2
num_leaves=31
num_cat=0
split_feature=11 7 15 17 25 10 15 11 17 13 17 22 3 11 13 15 15 7 12 27 23 13 12 12 3 23 28 7 22 25
split_gain=69.7443 27.3978 21.6983 17.3391 16.9335 16.7182 18.6095 16.2573 16.1137 14.4152 12.4453 11.5879 12.2024 10.9139 10.2788 10.2562 15.119 10.1909 10.1279 9.52865 9.04446 8.9541 11.247 8.2975 9.68271 9.47202 7.57366 7.41236 7.2918 7.33782
threshold=70.220611572265639 97.049911499023452 0.1408666474239236 0.00015833587609995003 0.064864724874496474 2.5000000000000004 0.36489858396091734 50.024892807006843 0.16947385183423561 41.503686904907234 0.87138060394029404 726725.16000000015 0.020012744736755753 75.904834747314467 2.2186028957366948 0.30388613957486138 0.25218375367609991 91.636306762695327 36.083845138549812 -0.69023221731185902 7981509.1469932953 2.0851994752883916 22.065760612487797 32.473699569702156 0.024100229486327372 9375576.910463525 0.098951075226068511 95.417659759521499 51333320.000000007 0.011551830451935531
decision_type=2 2 2 2 2 2 2 2 2 2 2 2 2 2 2 2 2 2 2 2 2 2 2 2 2 2 2 2 2 2
left_child=1 2 19 -2 5 6 15 -3 -8 13 11 -7 -13 14 -5 16 -4 26 -15 -1 -10 -21 -23 25 -25 -16 -11 -19 29 -9
right_child=3 7 4 9 -6 10 8 28 20 17 -12 12 -14 18 23 -17 -18 27 -20 21 -22 22 -24 24 -26 -27 -28 -29 -30 -31
leaf_value=-0.012947610532066313 0.047456768353613982 0.030316953566153056 -0.042282163114575361 0.025434362913978159 -0.040220184871639246 -0.029167777695495903 0.010150364980878261 -0.0038287698146513092 -0.012715712249392866 -0.010640677183115245 -0.038605181129921035 0.0071386133580788385 -0.013392439974259485 0.029381818083495628 0.014880284911278211 -0.061005789943677183 0.0025687125029808253 0.024923345308906542 0.0042608204207278608 -0.072302770295096047 -0.04261123395901114 -0.017013546478783195 -0.050029226668041528 -0.032819724086439302 0.0066658332311884368 -0.015480823667987059 -0.044378599254490593 -0.012229548996597414 0.0087056835949971476 -0.030770432011522811
leaf_weight=28.320409506559372 20.697550266981125 32.444869503378868 72.227183803915977 29.387963280081749 87.419595673680305 49.944474652409554 47.977761328220367 55.567989811301231 62.451925382018089 33.652040719985962 34.119393616914749 145.27961952984333 144.20691245794296 72.051451399922371 62.155229657888412 38.790372416377068 25.396758958697319 21.181676313281059 90.53924286365509 24.354926869273186 42.527291923761368 38.829362884163857 76.842776209115982 47.168671116232872 23.144150093197823 43.785926401615143 32.894468948245049 36.659781888127327 41.850411057472229 46.356804430484772
leaf_count=133 107 163 324 146 394 230 235 265 293 159 154 706 680 361 305 169 122 105 438 104 191 181 340 216 112 206 148 173 203 213
internal_value=-0.0125822 -0.0197116 -0.0231756 0.00262494 -0.0195359 -0.0168082 -0.0258298 -0.00165254 -0.0138553 0.000741322 -0.00981967 -0.00692617 -0.00308887 0.00571241 -0.00194162 -0.0392563 -0.0306143 -0.0139749 0.0153931 -0.0393984 -0.0248264 -0.0447481 -0.0389464 -0.00650619 -0.0198227 0.00233191 -0.0273176 0.00137593 -0.00886689 -0.0160822
internal_weight=1608.23 1094.91 918.689 513.318 750.341 662.922 289.371 176.22 152.957 492.621 373.55 339.431 289.487 368.233 205.642 136.414 97.6239 124.388 162.591 168.347 104.979 140.027 115.672 176.254 70.3128 105.941 66.5465 57.8415 143.775 101.925
internal_count=7576 5100 4256 2476 3498 3104 1334 844 719 2369 1770 1616 1386 1784 985 615 446 585 799 758 484 625 521 839 328 511 307 278 681 478
is_linear=0
shrinkage=0.05


Tree=3
num_leaves=31
num_cat=0
split_feature=7 15 18 3 15 12 10 15 33 15 0 27 10 0 8 27 10 8 27 15 12 28 28 12 24 12 1 26 29 3
split_gain=27.5004 18.7837 19.1999 20.5421 14.0159 12.8267 15.1626 14.8634 10.7427 10.4427 11.108 10.7206 9.92069 9.25322 8.5316 7.86742 9.80243 9.71097 7.86433 7.52765 8.77888 8.89448 9.83149 7.52587 7.50309 9.1521 7.64384 6.93989 6.79329 6.76777
threshold=97.691417694091811 0.13908746537273606 1.0000000180025095e-35 0.016864264965885237 0.65364590160584668 43.116210937500007 2.5000000000000004 0.36007461077740394 0.082267198711633696 0.44440546214193005 4.6974999904632577 -0.18503490090370175 1.0000000180025095e-35 0.77109998464584362 -0.70710678118654735 -0.26254057884216303 5.5000000000000009 -0.37940952255126059 1.1104739904403689 0.26725686002076449 25.492258071899418 -0.11385037004947661 0.2043314874172211 24.374032020568851 -0.0082593676634132845 27.65310096740723 0.036791084334254272 0.031209483742713932 0.001271468121558428 0.022609314937134233
decision_type=2 2 2 2 2 2 2 2 2 2 2 2 2 2 2 2 2 2 2 2 2 2 2 2 2 2 2 2 2 2
left_child=1 -1 3 13 -5 6 7 14 19 18 11 -11 -13 -3 -4 28 17 -17 -9 24 21 -21 -23 -19 -8 26 27 -26 -2 -7
right_child=15 2 5 4 -6 29 8 9 -10 10 -12 12 -14 -15 -16 16 -18 23 -20 20 -22 22 -24 -25 25 -27 -28 -29 -30 -31
leaf_value=-0.027047101307413824 -0.031624142755759359 0.049943170648789829 -0.0065428472344015434 -0.024851499755158237 0.019032188915339844 -0.042844289915724705 -0.019610781528380691 0.018057791013262419 0.02456793452458067 -0.031213793079567655 -0.044682278231878342 0.030082162227584364 -0.011022564404119351 0.0066517670712040351 -0.0343337110962708 0.035470586130063333 -0.014739109005201829 -0.014451243188165826 -0.018336830621834027 0.008388351554192033 -0.0040019236143527172 -0.032247958148474413 0.0031403917265298031 0.016236240573721444 0.042825721573156866 -0.0096556907165052212 -0.0055391972834306722 0.0060509861581576844 0.0049516128874080197 -0.01853865969631318
leaf_weight=246.66554096341133 24.552954703569412 28.604158222675323 33.474509343504906 52.047821387648582 27.974532380700111 53.668787881731987 37.282577589154243 45.03830549120903 26.60964435338974 39.8662189245224 30.359387546777725 20.939006119966507 49.100343406200409 21.712721452116966 157.80467076599598 42.523505941033363 32.919364541769028 29.09742397069931 22.139742285013199 21.974770769476891 145.02876850962639 109.99157828092575 23.888918057084084 63.754368722438812 31.034807145595551 56.373754009604454 25.873350650072098 21.869231835007668 26.286259144544601 61.411846727132797
leaf_count=1128 113 148 158 242 139 242 174 221 132 183 136 104 231 106 714 214 155 137 103 107 691 503 115 313 158 267 123 106 127 286
internal_value=-0.0119387 -0.0145327 -0.0118345 0.00622959 -0.00951047 -0.0141571 -0.0121445 -0.0194169 -0.00634426 -0.0101469 -0.0179106 -0.0105154 0.00126613 0.0312621 -0.0294702 0.00452446 0.00973156 0.0156821 0.00606328 -0.00808212 -0.0128556 -0.0210943 -0.0259335 0.00661955 0.000247242 0.00572524 0.016732 0.0276239 -0.0127128 -0.0298738
internal_weight=1609.87 1390.73 1144.07 130.339 80.0224 1013.73 898.65 398.722 499.927 207.443 140.265 109.906 70.0393 50.3169 191.279 219.134 168.295 135.375 67.178 473.318 300.884 155.855 133.88 92.8518 172.434 135.151 78.7774 52.904 50.8392 115.081
internal_count=7576 6517 5389 635 381 4754 4226 1850 2376 978 654 518 335 254 872 1059 819 664 324 2244 1416 725 618 450 828 654 387 264 240 528
is_linear=0
shrinkage=0.05


Tree=4
num_leaves=31
num_cat=0
split_feature=11 7 15 6 17 12 7 25 11 10 29 15 17 17 6 11 9 8 27 1 23 27 11 26 15 12 12 15 17 13
split_gain=62.2896 22.9212 17.8699 15.4931 16.163 17.8314 19.8119 15.0144 14.7086 13.7774 16.1967 15.325 14.3953 12.4695 11.4821 11.1998 10.1294 9.69311 9.21124 9.17921 8.68737 8.53216 8.51984 10.8373 8.40192 8.39158 8.14609 12.8538 9.48564 7.99935
threshold=70.220611572265639 97.049911499023452 0.1408666474239236 0.81960564708021699 0.010825298791106401 33.094356536865241 82.131305694580092 0.064864724874496474 50.024892807006843 2.5000000000000004 -0.011768918950110672 0.36489858396091734 0.16947385183423561 0.8681593090205274 0.35971445607945501 76.368244171142592 -0.37940952255126015 0.25881904510252091 0.65692329406738292 0.1456364840269089 7981509.1469932953 -0.69023221731185902 72.842285156250014 0.061209201812744148 0.29968115483975705 18.442219734191898 23.864976882934574 0.26537050889384134 0.74946796731931753 2.0851994752883916
decision_type=2 2 2 2 2 2 2 2 2 2 2 2 2 2 2 2 2 2 2 2 2 2 2 2 2 2 2 2 2 2
left_child=1 2 21 4 -2 15 -7 9 -3 11 -11 16 -13 19 -10 25 -4 20 -17 26 -14 -1 -8 -24 -18 -6 27 -12 -29 -23
right_child=3 8 7 -5 5 6 22 -9 14 10 13 12 17 -15 -16 18 24 -19 -20 -21 -22 29 23 -25 -26 -27 -28 28 -30 -31
leaf_value=-0.010911170165903969 0.031245953517466719 0.02896660652201153 -0.052812976109241509 -0.028845698646588647 0.033639412668281597 -0.032387373090752063 -0.021504511725968564 -0.037334575299086188 -0.0023248822223100041 -0.035603107940559646 0.037090421229149927 0.010064329819905028 0.0044942173730819204 -0.033235722314708199 -0.041357753338830107 0.051850442448801215 -0.015322694203061699 -0.042086542460125845 0.013975775710490038 -0.020178615543297383 -0.032723881990242655 -0.066895723643313781 0.02688653431488541 -0.0038621953677598717 -0.050915604665439242 -0.00042225396635814746 -0.0057054670059553851 0.015362132293191827 -0.022246993532120264 -0.035464453867274426
leaf_weight=28.442268371582031 53.73118069767952 32.293937772512436 52.853192910552025 35.456140249967575 21.244930788874626 59.913423091173172 32.064016655087471 87.854309931397438 121.61709962785244 49.617439329624176 36.347111105918884 47.94937239587307 37.80823241174221 34.742191165685654 22.294805631041527 27.217434495687485 61.65135246515274 40.730195119976997 39.13604561984539 53.775681540369987 26.788046181201935 24.508516013622284 45.277435660362244 78.05520324409008 22.679648697376251 121.46452493965626 129.59648890793324 42.273748263716698 27.785162344574928 116.30478744208813
leaf_count=133 274 163 230 163 107 272 148 394 581 225 185 235 181 157 100 141 286 182 192 249 121 104 225 372 99 582 618 207 129 521
internal_value=-0.0113286 -0.0180518 -0.0212106 0.00304468 0.00540966 0.00213845 -0.00796094 -0.0179086 -0.00152868 -0.0153407 -0.00899758 -0.0235112 -0.0126459 -0.00492974 -0.00837185 0.0125396 -0.035651 -0.0229846 0.0295115 -0.00153607 -0.0109401 -0.0358897 0.00145671 0.00742617 -0.0248949 0.00464845 0.00271183 0.0129636 0.000446461 -0.0409351
internal_weight=1611.47 1097.91 921.708 513.56 478.104 424.373 215.31 752.452 176.206 664.598 374.138 290.46 153.276 324.52 143.912 209.063 137.184 105.326 66.3535 289.778 64.5963 169.256 155.397 123.333 84.331 142.709 236.003 106.406 70.0589 140.813
internal_count=7576 5100 4256 2476 2313 2039 1017 3498 844 3104 1770 1334 719 1545 681 1022 615 484 333 1388 302 758 745 597 385 689 1139 521 336 625
is_linear=0
shrinkage=0.05


Tree=5
num_leaves=31
num_cat=0
split_feature=11 7 15 24 11 7 25 11 1 17 10 29 6 12 15 15 12 17 15 9 26 12 17 25 31 6 29 29 10 15
split_gain=56.1174 20.6288 16.0708 14.9027 15.0679 14.5544 13.4751 13.3209 12.9323 12.8502 13.7641 11.9719 10.3125 10.2003 9.60115 9.58155 9.03723 12.1193 7.89662 11.1999 7.71526 7.56164 7.17565 7.23241 7.16242 7.5182 7.59947 7.57351 7.15281 6.72357
threshold=70.220611572265639 97.049911499023452 0.1408666474239236 0.12067968025803567 75.02582168579103 77.63135147094728 0.064864724874496474 50.024892807006843 0.1456364840269089 0.88950714025592859 2.5000000000000004 -0.011768918950110672 0.35971445607945501 32.982664108276374 0.36489858396091734 0.44440546214193005 18.625745773315433 0.021794216868567504 0.30388613957486138 -0.37940952255126015 -0.02580649126321077 42.897939682006843 0.75651556690685295 0.046433703973889358 7.2360002377536161e-05 0.032451944650695917 0.026822821237146858 0.014415500219911339 1.5000000000000002 0.22998762056457314
decision_type=2 2 2 2 2 2 2 2 2 2 2 2 2 2 2 2 2 2 2 2 2 2 2 2 2 2 2 2 2 2
left_child=1 2 20 4 16 -6 8 -3 9 10 14 -12 -9 -7 18 -16 -2 -18 19 -4 -1 24 -15 -24 25 -13 27 -27 -17 -21
right_child=3 7 6 -5 5 13 -8 12 -10 -11 11 21 -14 22 15 28 17 -19 -20 29 -22 -23 23 -25 -26 26 -28 -29 -30 -31
leaf_value=-0.016539227336083893 0.027338461786927438 0.02765485565428491 -0.048303884215137816 -0.021500728009487262 -0.012607068550624859 0.034635858864406587 -0.035368707595410546 -0.0022079846670529906 -0.029346773262203481 -0.04366755788429566 -0.028365101718694746 -0.024065488055693904 -0.03914088106153249 0.020613855847329186 0.013079258725906033 -0.0064011603406453552 0.026373383903660615 -0.011790906836276777 -0.051117967989362779 -0.023873087730706469 -0.0405329460269351 -0.025179483819905549 0.016860746645333827 -0.022172964417841036 0.030125352400552169 0.0049471548618735097 -0.020913796101259575 0.038085272763178864 -0.035551165392120922 0.013387586758116507
leaf_weight=45.961372956633568 21.079929009079933 32.138463839888573 24.792598620057106 55.784359231591225 41.289412260055542 74.663154318928719 88.093975484371185 121.65217483043671 120.95890620350838 28.98125447332859 37.953390061855316 25.207544460892677 22.377404183149338 78.487084090709686 34.692003309726715 53.121858850121498 23.694616124033928 170.38995619118214 30.683960855007172 26.811194598674774 123.61128124594688 23.575517207384109 22.228836014866829 25.458088397979736 24.465758129954338 133.02073779702187 24.19949933886528 19.809385716915131 34.850945860147476 22.075754776597023
leaf_count=211 106 163 108 258 195 380 394 581 549 128 173 117 100 390 169 251 120 800 133 122 547 109 109 118 123 644 113 100 158 107
internal_value=-0.0107561 -0.01713 -0.0201229 0.00289716 0.00587343 0.0144293 -0.0169924 -0.00145141 -0.0145588 -0.0112722 -0.00945006 -0.00219735 -0.00794613 0.0199876 -0.018658 -0.00917368 -0.00375458 -0.00713166 -0.0298055 -0.0209299 -0.0340296 0.00177085 0.0113196 -0.00397775 0.00457349 0.00148234 0.00512014 0.00924242 -0.0179491 -0.00704738
internal_weight=1612.11 1099.03 922.867 513.075 457.291 242.127 753.294 176.168 665.2 544.241 515.26 288.232 144.03 200.837 227.028 122.665 215.165 194.085 104.364 73.6795 169.573 250.278 126.174 47.6869 226.703 202.237 177.03 152.83 87.9728 48.8869
internal_count=7576 5100 4256 2476 2218 1192 3498 844 3104 2555 2427 1379 681 997 1048 578 1026 920 470 337 758 1206 617 227 1097 974 857 744 409 229
is_linear=0
shrinkage=0.05


Tree=6
num_leaves=31
num_cat=0
split_feature=11 7 13 13 11 5 24 28 29 3 11 8 23 3 15 26 11 7 26 28 25 23 15 27 12 24 24 12 12 27
split_gain=50.5773 18.5743 14.7954 13.5538 12.0664 10.8952 11.4386 10.73 10.6767 9.32981 9.38865 9.21875 9.84403 8.95583 8.8479 8.64657 8.212 8.6622 9.56462 7.82451 7.72736 7.50479 7.46368 9.03656 6.96116 6.60853 6.48902 6.43953 6.32377 6.05667
threshold=70.220611572265639 97.049911499023452 36.65284729003907 41.503686904907234 50.024892807006843 1.9284999966621401 0.013763389550149443 0.31396710872650152 -0.004312550649046897 0.018119743658997708 64.967788696289077 0.37940952255126054 12102260.601381706 0.025202950721828196 0.38746878680396152 -0.021731820888817307 75.02582168579103 77.63135147094728 0.055383831262588508 0.11455776169896127 -0.017763819545507428 11427587.079325171 0.19270250803448433 1.0619959235191347 28.093095779418949 0.013763389550149443 0.11297794058918954 19.066002845764164 21.153423309326175 -0.046300401911139481
decision_type=2 2 2 2 2 2 2 2 2 2 2 2 2 2 2 2 2 2 2 2 2 2 2 2 2 2 2 2 2 2
left_child=1 2 5 16 -3 7 8 9 -7 10 15 12 20 25 -4 -1 27 -18 24 -10 -11 -20 -13 -24 -19 -5 -15 -2 -17 -6
right_child=3 4 14 13 29 6 -8 -9 19 11 -12 22 -14 26 -16 28 17 18 21 -21 -22 -23 23 -25 -26 -27 -28 -29 -30 -31
leaf_value=0.0035850180624421575 0.025768259536437715 0.02640687240589943 -0.043652390218601879 -0.0021268502315496722 -0.022743785508970243 -0.041138283315326429 -0.045865246369628132 0.011873634081405732 -0.018007326067055698 -0.037779073060458759 0.0097127413901029747 -0.053004339459226238 0.0064733527938910136 0.016303221288034669 -0.015511595942866999 -0.0070144846089395521 -0.0075328022524231465 0.05635451175888289 -0.0038329761563863207 0.014256526623784847 -0.012278610756484775 0.029169889546313672 -0.012449700738004261 -0.046525668275229866 0.02299782725536963 -0.035151427442236538 -0.01674422579662866 -0.0032184055484201601 -0.032465758628012577 -0.00063174055160983408
leaf_weight=50.028281390666962 21.617354869842529 31.97859300673008 88.569059163331985 23.00351594388485 45.049686193466187 43.789829820394516 53.497505143284798 41.06999596953392 117.50074356794357 42.702380076050758 62.088076993823051 29.64087375998497 46.65432120859623 35.706699565052986 40.799439013004303 41.846046984195709 35.739598155021667 21.221526652574539 51.642162576317787 22.369066953659058 97.628377363085747 25.847155645489693 57.632704749703407 29.37069146335125 59.474917963147163 44.362881869077682 25.434901759028435 168.55816678702831 58.560365915298462 99.07381497323513
leaf_count=239 109 163 391 110 208 195 236 198 541 192 299 129 223 175 189 197 170 112 249 108 455 130 269 130 299 201 118 803 265 473
internal_value=-0.0102147 -0.0162601 -0.0190972 0.00275644 -0.00137837 -0.0165436 -0.0255193 -0.0127234 -0.0195928 -0.0146806 -0.00664558 -0.0203046 -0.0134235 -0.0112997 -0.0347775 -0.0133971 0.00745917 0.0146991 0.019722 -0.0128474 -0.0200384 0.00717538 -0.0313354 -0.0239531 0.03177 -0.0238746 0.00255549 7.65244e-05 -0.0218585 -0.00754346
internal_weight=1612.46 1099.85 923.748 512.609 176.102 794.379 237.157 557.222 183.66 516.152 212.523 303.629 186.985 128.508 129.368 150.435 384.101 193.925 158.186 139.87 140.331 77.4893 116.644 87.0034 80.6964 67.3664 61.1416 190.176 100.406 144.124
internal_count=7576 5100 4256 2476 844 3676 1080 2596 844 2398 1000 1398 870 604 580 701 1872 960 790 649 647 379 528 399 411 311 293 912 462 681
is_linear=0
shrinkage=0.05


Tree=7
num_leaves=31
num_cat=0
split_feature=11 17 16 11 9 7 13 7 1 17 17 3 11 26 13 28 9 18 13 13 17 26 10 23 28 7 7 7 27 29
split_gain=45.8034 18.0457 16.4189 14.9663 16.1976 12.6956 12.6269 12.2855 13.8491 16.8823 12.5829 10.8126 10.4708 11.4913 9.97361 9.51774 9.05794 8.91345 8.8874 8.12381 7.99072 6.94477 6.79121 6.93969 6.46174 7.52126 6.42833 6.26119 6.04645 6.00925
threshold=68.907661437988295 0.010825298791106401 0.1408666474239236 47.325298309326179 0.37940952255126048 82.57303619384767 49.668504714965827 99.176940917968764 0.098672483116388335 0.83495796554590751 0.79653976874069865 0.021457147989908696 75.02582168579103 0.061209201812744148 72.18524551391603 -0.12518575787544248 0.98296291314453421 1.5000000000000002 8.5332484245300311 22.462253570556644 0.30332826656138218 -0.02580649126321077 1.5000000000000002 8106160.5482656257 0.28519074618816381 98.463897705078139 97.563449859619155 83.81622695922853 1.0951306223869326 0.0074510469567030677
decision_type=2 2 2 2 2 2 2 2 2 2 2 2 2 2 2 2 2 2 2 2 2 2 2 2 2 2 2 2 2 2
left_child=2 17 21 15 7 14 16 8 9 10 11 -5 19 -14 29 -4 24 18 -2 22 -13 -1 -7 28 25 -6 -15 -18 -24 -3
right_child=1 5 3 4 6 12 -8 -9 -10 -11 -12 20 13 26 -16 -17 27 -19 -20 -21 -22 -23 23 -25 -26 -27 -28 -29 -30 -31
leaf_value=-0.014040536886073516 0.062851398096613997 -0.01977737476847715 0.02519136668439997 -0.0062925600703747711 -0.0057949598651309449 -0.018491132013409795 -0.043770282713871664 0.013758758739365069 -0.043042596186984451 -0.043810871109044233 0.016714982024999849 -0.010666403059659716 0.027276947704702004 -0.0049722263680808156 -0.044368218410762161 -0.0055549471173213082 -0.036889066054150002 0.00049643933961563292 0.016743597857808414 -0.021439743497930527 -0.039943476066409161 -0.035396863883763841 0.033604985260968008 -0.0051933474087611864 0.026767238144388229 0.025740146298399227 0.026437500078556404 -0.0075432982604506666 -0.00047849959650239561 0.0012889116812978729
leaf_weight=52.892924010753632 21.162835776805878 62.476107358932495 34.080866724252701 97.948549672961235 174.2819844186306 32.075623854994774 22.285252377390862 21.766099631786346 81.849660068750381 58.090370029211044 29.723692089319229 36.112610965967178 74.084732815623283 80.793853342533112 22.391724109649658 96.270075991749763 31.050920635461807 21.550975620746613 20.648254677653313 52.115222528576851 65.72040382027626 135.80311560630798 33.160956367850304 52.813960894942284 21.073821172118187 21.208790987730026 20.403252139687538 43.837557509541512 21.415717795491219 73.88680924475193
leaf_count=244 115 290 169 462 820 149 99 106 362 257 145 169 376 385 99 455 140 105 104 240 293 604 166 250 104 105 102 206 102 353
internal_value=-0.00969956 0.00141017 -0.0160896 -0.0130804 -0.0159584 -0.00162851 -0.00749511 -0.0227456 -0.0248963 -0.0197319 -0.0136372 -0.018153 0.00348327 0.0123144 -0.0134412 0.00248382 -0.00472142 0.0266175 0.0400812 -0.00459651 -0.0295611 -0.0294105 0.0016974 0.00772735 0.000461979 -0.00237372 0.00136057 -0.0197109 0.0202307 -0.00836283
internal_weight=1612.98 588.98 1024 835.301 704.95 525.618 313.738 391.211 369.445 287.596 229.505 199.782 366.863 175.282 158.755 130.351 291.453 63.3621 41.8111 191.581 101.833 188.696 139.466 107.391 216.565 195.491 101.197 74.8885 54.5767 136.363
internal_count=7576 2836 4740 3892 3268 2512 1474 1794 1688 1326 1069 924 1770 863 742 624 1375 324 219 907 462 848 667 518 1029 925 487 346 268 643
is_linear=0
shrinkage=0.05


Tree=8
num_leaves=31
num_cat=0
split_feature=11 15 17 11 9 17 10 15 7 9 24 11 7 12 12 28 6 3 1 17 7 1 1 17 12 1 12 6 28 7
split_gain=41.2913 16.411 13.8729 12.7656 14.7012 13.3933 12.6182 16.7663 12.2288 11.8247 10.0248 12.9063 10.4983 9.4095 9.1739 8.6146 8.51511 7.89122 9.63293 7.70081 7.27594 7.2328 11.1662 7.02242 8.2925 6.81113 6.6004 6.57594 6.88608 9.75157
threshold=69.406364440917983 0.1408666474239236 0.00015833587609995003 47.325298309326179 0.37940952255126048 0.014320242146544452 2.5000000000000004 0.26725686002076449 97.30249404907228 0.98296291314453421 0.12067968025803567 75.02582168579103 77.63135147094728 18.442219734191898 36.083845138549812 -0.12518575787544248 0.46180634815195182 0.018119743658997708 0.075900964438915267 0.83380817005924668 95.739501953125014 0.0094938632100820559 0.042638003826141364 0.83380817005924668 23.016959190368656 0.00089196779299527418 21.526858329772953 0.34034415203115398 -0.04902240261435508 79.190441131591811
decision_type=2 2 2 2 2 2 2 2 2 2 2 2 2 2 2 2 2 2 2 2 2 2 2 2 2 2 2 2 2 2
left_child=1 27 -2 15 5 -5 8 23 25 17 11 13 -13 -4 -14 -3 -15 18 -6 26 21 -19 -23 24 -8 -7 -9 28 -1 -30
right_child=2 3 10 4 9 6 7 19 -10 -11 -12 12 14 16 -16 -17 -18 20 -20 -21 -22 22 -24 -25 -26 -27 -28 -29 29 -31
leaf_value=-0.038459000163254681 0.040355212420107103 0.024008604225297325 0.022495926030266788 0.0054226299891099476 0.019304983964189587 -0.014649226912274839 0.0364036523987505 -0.0015713408979442329 0.00014996540589817803 -0.022641359853404444 -0.019840147623423097 -0.012546371411920177 0.027626455724569638 -0.0048102057916207886 0.0055612539233087475 -0.0052743614371417776 -0.033332650393788348 -0.0288799469921058 -0.018585864148867922 -0.049599083171413309 0.010515227777007422 0.021040699754705319 -0.022818772411159583 -0.019098575782860779 -0.0049016596230227819 -0.044704851019682836 -0.028875729980683603 -0.04794000643830517 -0.041371571500756765 -0.0072725972743878722
leaf_weight=53.717580154538155 22.405282989144325 33.974582269787788 27.1495760679245 43.000082015991211 71.185786813497543 22.438829720020294 22.792051076889038 32.722906246781349 22.059481605887413 85.727210566401482 55.902999088168144 38.778713643550873 89.510171160101891 192.95037341117859 99.436154067516327 96.320548459887505 30.272617682814598 49.729317665100098 21.944622412323952 28.172211319208145 38.230532974004745 26.530206322669983 32.033989652991295 23.058300599455833 26.026442021131516 117.85123510658741 68.393557012081146 34.489299282431602 28.738365828990936 77.532669916749001
leaf_count=238 118 169 136 207 349 103 115 155 105 393 257 182 457 914 485 455 137 226 101 123 185 129 146 106 123 516 311 150 126 359
internal_value=-0.00921269 -0.0150176 0.00181147 -0.0120583 -0.0146253 -0.0209651 -0.0240865 -0.0157178 -0.0344561 -0.00670456 0.000194269 0.00253685 0.0111508 -0.00529788 0.0160143 0.0023612 -0.00867831 -0.00100377 0.0103766 -0.0264807 -0.00823714 -0.0148572 -0.00294996 0.00364179 0.0143827 -0.0398976 -0.0200396 -0.0281377 -0.0238688 -0.0164938
internal_weight=1613.08 1056.67 556.406 862.192 731.897 406.515 363.515 201.165 162.35 325.382 534.001 478.098 227.725 250.373 188.946 130.295 223.223 239.654 93.1304 129.289 146.524 108.294 58.5642 71.8768 48.8185 140.29 101.116 194.478 159.989 106.271
internal_count=7576 4890 2686 4017 3393 1864 1657 933 724 1529 2568 2311 1124 1187 942 624 1051 1136 450 589 686 501 275 344 238 619 466 873 723 485
is_linear=0
shrinkage=0.05


Tree=9
num_leaves=31
num_cat=0
split_feature=11 17 15 11 23 24 29 12 28 17 15 5 11 18 13 29 11 6 15 10 11 8 10 5 27 27 13 12 22 8
split_gain=37.4451 15.5698 13.3041 12.2005 11.8065 11.7549 11.6818 10.1595 9.57693 11.0098 9.03194 8.38168 8.62628 8.20176 8.28201 8.09225 13.8041 7.76569 8.45694 7.34461 10.6156 7.47904 7.09723 6.97118 6.33015 6.28037 6.16633 5.99127 5.96458 5.85722
threshold=68.907661437988295 0.010825298791106401 0.1408666474239236 45.720479965209968 826944.1178038494 0.013763389550149443 -0.011207391973584889 33.175556182861335 0.14252714067697528 0.021794216868567504 0.54787813307250233 1.792949974536896 60.958723068237312 1.5000000000000002 8.5332484245300311 0.058399356901645667 77.550094604492202 0.077797740189015932 0.55089917541159183 1.5000000000000002 75.904834747314467 0.78656609248549325 3.5000000000000004 1.4704499840736391 0.21209103614091876 0.81879431009292614 29.3296012878418 18.279827117919925 4380614.2999999961 0.91597561503675362
decision_type=2 2 2 2 2 2 2 2 2 2 2 2 2 2 2 2 2 2 2 2 2 2 2 2 2 2 2 2 2 2
left_child=2 13 -1 10 -5 6 22 15 9 -8 25 12 -7 14 -2 16 27 -11 29 20 -9 23 -6 24 -21 -4 -17 -3 -29 -19
right_child=1 7 3 4 5 11 8 19 -10 17 -12 -13 -14 -15 -16 26 -18 18 -20 21 -22 -23 -24 -25 -26 -27 -28 28 -30 -31
leaf_value=-0.026507033636894481 0.060142580980551266 0.024717164768064407 0.009196522992844007 0.020363974322582364 -0.017246886433885427 -0.037359297190582806 0.014102501849213314 -0.047768478190895192 0.010869174489706538 -0.024209654999791847 0.034226008375234616 -0.04168205513158179 -0.0093088976352106896 -0.00020850238392841329 0.015353905005598016 0.0079549759549942707 0.034788026020470486 -0.0014617402196496362 -0.029561289943860005 0.018174895287711643 -0.0055207556465149037 -0.02313197907391433 -0.05120863957389922 0.018495479295307225 -0.011635246414892867 -0.018503549101593235 -0.026800617135225021 -0.013921685786618865 0.0067927175224716573 -0.026575421789783317
leaf_weight=188.90583722293377 20.76390315592289 27.41015736758709 46.375657558441162 24.059023424983025 36.194930866360664 41.341037690639496 38.460142314434052 26.372213989496231 54.962056741118431 124.00342838466167 20.23931285738945 59.109768748283386 81.327490150928497 21.492788940668106 20.523191452026367 21.733197435736656 42.986443027853966 178.69154636561871 41.140229612588882 22.415365621447563 34.087994009256363 40.153666973114014 26.754040539264679 41.854266718029976 86.648599222302437 36.621563673019409 30.916316792368889 54.43834488093853 96.096262663602829 26.684321373701096
leaf_count=848 115 138 225 117 166 185 187 116 266 567 101 261 379 105 104 106 223 844 186 110 162 185 117 205 406 170 141 255 465 121
internal_value=-0.0087528 0.0013065 -0.0145231 -0.011815 -0.0140823 -0.0152518 -0.0114694 -0.001507 -0.00872698 -0.0113605 0.00427733 -0.0262152 -0.0187623 0.0248396 0.0378788 0.00516157 0.00935946 -0.0140035 -0.00886963 -0.00876012 -0.0239488 -0.00395401 -0.031681 0.00114853 -0.00550852 -0.00302581 -0.0124539 0.00321663 -0.000698303 -0.00472474
internal_weight=1612.76 587.893 1024.87 835.965 732.728 708.669 526.891 525.113 463.942 408.98 103.237 181.778 122.669 62.7799 41.2871 273.581 220.931 370.52 246.516 251.532 60.4602 191.072 62.949 150.918 109.064 82.9972 52.6495 177.945 150.535 205.376
internal_count=7576 2836 4740 3892 3396 3279 2454 2512 2171 1905 496 825 564 324 219 1328 1081 1718 1151 1184 278 906 283 721 516 395 247 858 720 965
is_linear=0
shrinkage=0.05


Tree=10
num_leaves=31
num_cat=0
split_feature=11 25 7 15 6 17 12 7 10 15 15 29 28 17 11 27 9 7 31 0 5 0 11 15 9 15 17 7 10 9
split_gain=33.9866 15.4349 13.9845 13.1721 13.0389 10.8502 13.6009 15.7758 9.52372 10.7084 11.5378 9.54705 9.3967 9.54476 8.68057 8.58633 8.58574 8.49792 11.3481 8.4753 8.05243 8.0432 7.88546 7.88286 10.0247 8.86907 7.76074 7.06971 6.97161 7.47119
threshold=70.220611572265639 0.051839726045727737 97.049911499023452 0.12047228040524947 0.81960564708021699 0.010825298791106401 33.094356536865241 82.423522949218764 2.5000000000000004 0.36489858396091734 0.45019582904648409 -0.008388238959014414 0.12943918257951739 0.83380817005924668 50.024892807006843 -0.046300401911139481 0.37940952255126048 78.48661041259767 5.1319999329280115e-05 0.85089999437332164 0.6240999996662141 0.24029999971389773 77.550094604492202 0.30580969725440771 -0.5 0.24190177321309972 0.80326981568685085 75.088451385498061 5.5000000000000009 -0.60355339059327384
decision_type=2 2 2 2 2 2 2 2 2 2 2 2 2 2 2 2 2 2 2 2 2 2 2 2 2 2 2 2 2 2
left_child=1 2 3 16 5 -2 22 27 9 23 -11 21 13 -3 -4 -16 -1 26 -19 -17 -14 -10 28 24 -5 -26 -13 -8 29 -7
right_child=4 12 14 8 -6 6 7 -9 11 10 -12 17 20 -15 15 19 -18 18 -20 -21 -22 -23 -24 -25 25 -27 -28 -29 -30 -31
leaf_value=-0.017580944775303475 0.026015243534770791 -0.028363384116447933 0.026894527597690971 -0.042755568489171732 -0.026893392611292605 -0.0084747502331380762 -0.0056813816730752233 0.0016910798993426516 -0.0019615171390258666 0.01354489125701425 -0.01704787643930801 -0.0024524336619432202 0.00047029849724060477 -0.065442328333891367 -0.021405735181543074 0.023326040530938761 -0.047678293444252201 -0.0008746155969546163 0.037322145107321562 -0.0095324237016990443 -0.032144712971578886 -0.037749316459937787 0.027835324988627855 -0.04683165527092345 -0.02081881448911636 0.016506147933878567 -0.032016284189344303 -0.040825643372863096 -0.018744797913037677 0.017781659921430455
leaf_weight=53.910125464200974 52.30726645886898 60.316426947712898 30.679471671581268 35.354920104146004 35.469989851117134 38.463596239686012 22.352574244141579 153.20638234913349 26.267190262675285 43.417112201452255 106.21925067901611 50.449386492371559 40.381420388817787 24.367876499891281 41.18430595099926 38.981333345174789 42.277643278241158 213.92713694274426 21.389258697628975 39.520721778273582 35.616654917597771 39.025755897164345 52.149266868829727 37.660268902778625 59.706745833158493 21.699753671884537 39.640811592340469 39.769751742482185 25.133741810917854 91.649642750620842
leaf_count=244 274 271 157 154 163 183 104 736 123 210 489 240 189 103 189 192 183 1014 108 185 159 173 268 163 270 105 179 177 118 453
internal_value=-0.00831542 -0.0132561 -0.0108112 -0.0134685 0.00234969 0.00453323 0.00187508 -0.00692678 -0.0110676 -0.0177035 -0.00817136 -0.00590327 -0.0275784 -0.0390328 0.00316615 -0.00291619 -0.0308097 -0.00240218 0.00259731 0.00678392 -0.0148148 -0.023352 0.0110136 -0.0269402 -0.0205245 -0.0108695 -0.0154609 -0.0281802 0.00536298 0.0100198
internal_weight=1612.5 1101.99 941.311 790.945 510.502 475.032 422.725 215.329 694.758 304.058 149.636 390.7 160.682 84.6843 150.366 119.686 96.1878 325.407 235.316 78.5021 75.9981 65.2929 207.396 154.422 116.761 81.4065 90.0902 62.1223 155.247 130.113
internal_count=7576 5100 4378 3655 2476 2313 2039 1017 3228 1391 699 1837 722 374 723 566 427 1541 1122 377 348 296 1022 692 529 375 419 281 754 636
is_linear=0
shrinkage=0.05


Tree=11
num_leaves=31
num_cat=0
split_feature=11 25 17 7 7 12 11 27 15 1 13 13 7 7 28 10 22 3 11 13 18 13 27 10 22 25 13 29 7 27
split_gain=30.8468 14.5192 13.0039 11.1279 10.6824 14.6221 11.6938 14.9806 10.1172 10.4482 9.97779 9.10906 8.91077 10.641 8.3974 8.36177 9.8604 7.9453 8.43902 7.77019 7.5315 7.70561 6.7228 6.57301 12.1961 8.49758 8.89905 6.50427 6.36787 6.2022
threshold=68.907661437988295 0.051839726045727737 0.010825298791106401 99.645320892333999 91.536426544189467 36.820686340332038 75.518466949462905 0.80739837884902965 0.22024623686919007 0.4777244776487351 4.9137520790100107 38.969203948974616 94.726909637451186 97.30249404907228 0.13311868160963061 1.5000000000000002 3792994.0500000003 0.022186448962235383 46.35656929016114 1.3448730707168581 1.5000000000000002 8.5332484245300311 0.10659393668174745 3.5000000000000004 19579770.000000004 0.0049931167159229526 5.6051385402679452 0.00033030312624759978 95.074192047119155 -0.93061128258705128
decision_type=2 2 2 2 2 2 2 2 2 2 2 2 2 2 2 2 2 2 2 2 2 2 2 2 2 2 2 2 2 2
left_child=1 3 20 8 5 11 10 -8 19 17 -6 14 -9 -14 15 -4 -17 23 -19 -1 21 -2 -3 24 29 26 -25 -11 -20 -10
right_child=2 22 4 -5 6 -7 7 12 9 27 -12 -13 13 -15 -16 16 -18 18 28 -21 -22 -23 -24 25 -26 -27 -28 -29 -30 -31
leaf_value=-0.040507288898112372 0.057338615411573784 -0.0023139664047229836 -0.022237287880345215 0.019898651343188599 0.017578153865964011 -0.022154053750514262 0.048669257168288155 0.033358217279525745 0.0057031945980513558 -0.046791627605254675 -0.012908982342022479 -0.020233572429181987 -0.027500193567892291 0.018447723774843224 0.024725702005558486 -0.016307025498873893 0.022696675861406446 0.0069561235856113353 -0.022218000366009363 -0.016113479656985241 -0.0011154085322339464 0.013802388122770541 -0.032717358016280951 -0.014851906701904281 0.012614016672522772 0.029772281718355859 0.02308336873342761 -0.013744697058684745 -0.0013491310822028788 -0.024096746362486918
leaf_weight=37.14843438565731 20.281970426440239 21.461845517158508 32.423185020685196 28.628707900643349 38.905979692935944 108.92110896110535 30.520009472966194 22.137270584702492 23.144749939441681 24.977807521820068 86.51728492975235 40.111861512064934 25.390832841396332 25.014220088720322 44.707270920276642 25.497639238834381 44.456777974963188 47.348969250917435 137.51042452454567 269.26466746628284 21.416699096560478 20.372457936406136 118.9829028993845 40.052506074309349 56.427674993872643 37.059823513031006 25.177738890051842 36.864382341504097 49.789557114243507 71.093529477715492
leaf_count=164 115 100 151 141 191 499 162 112 110 109 404 185 118 125 223 120 222 229 626 1233 105 104 529 188 272 184 124 170 236 325
internal_value=-0.00790338 -0.0131369 0.00123975 -0.0107656 -0.00132083 -0.00758821 0.00680171 0.0192801 -0.0117913 -0.00773161 -0.00345195 0.000886977 0.00691545 -0.00469789 0.00664681 -0.00124806 0.00848024 -0.00527614 -0.0119029 -0.0190709 0.0228809 0.0355221 -0.0280713 0.00087107 -0.00577001 0.0106529 -0.000209551 -0.0270922 -0.0166705 -0.0167779
internal_weight=1611.61 1024.93 586.675 884.489 524.603 296.118 228.486 103.062 855.86 549.447 125.423 187.197 72.5423 50.4051 147.085 102.378 69.9544 487.605 234.649 306.413 62.0711 40.6544 140.445 252.956 150.666 102.29 65.2302 61.8422 187.3 94.2383
internal_count=7576 4740 2836 4111 2512 1400 1112 517 3970 2573 595 901 355 243 716 493 342 2294 1091 1397 324 219 629 1203 707 496 312 279 862 435
is_linear=0
shrinkage=0.05


Tree=12
num_leaves=31
num_cat=0
split_feature=11 6 7 6 22 3 1 33 16 17 12 7 29 17 12 7 11 9 28 11 9 17 11 7 11 23 6 12 22 23
split_gain=27.8749 14.6005 16.2925 11.5582 9.94972 12.4702 13.7045 11.7102 10.4924 10.8547 10.7867 10.4821 9.09861 9.36847 12.2883 13.1376 10.5242 10.1298 11.2532 8.0645 8.02957 7.68821 7.48367 7.27054 6.75713 6.73446 6.57111 6.22063 6.19386 6.11534
threshold=70.220611572265639 0.51696141623012648 97.049911499023452 0.81960564708021699 499947.85500000004 0.031417925884501978 0.0052943606860935697 0.079984694719314589 0.36489858396091734 0.33242857010019528 22.239307403564457 85.654872894287124 0.17615173012018207 0.010825298791106401 33.094356536865241 92.034286499023452 77.550094604492202 -0.78656609248549325 0.062219941988587386 59.267032623291023 0.60355339059327384 0.39355581269873396 57.947324752807624 78.19541168212892 50.024892807006843 2584023.9069079044 0.14465801614236359 33.285259246826179 165521.42500000002 12522644.311514499
decision_type=2 2 2 2 2 2 2 2 2 2 2 2 2 2 2 2 2 2 2 2 2 2 2 2 2 2 2 2 2 2
left_child=1 2 4 12 25 7 -7 8 10 11 22 -10 13 -2 16 17 -15 -16 20 -3 -19 -8 -6 -11 -4 -1 -24 -26 -27 -17
right_child=3 19 24 -5 5 6 21 -9 9 23 -12 -13 -14 14 15 29 -18 18 -20 -21 -22 -23 26 -25 27 28 -28 -29 -30 -31
leaf_value=-0.0061557147880875046 0.026495562360357251 -0.011961300970627867 0.025254594526164353 -0.025341764117907069 -0.017765636031752602 -0.043519556061613229 0.012112273073580477 0.022861537711730093 0.036492063390477329 -0.024631868495977465 -0.021742076981061634 -0.0038252468892109046 -0.022354224479188584 0.0060399480498587723 0.013701653212252524 0.00043878040980630054 0.03368383934767874 -0.055085924801443635 -0.0029725190388108099 -0.048094875981680135 -0.01623704824606452 -0.021747251532553507 -0.0081128656022783456 -0.00099588214567174877 -0.0076126100766426702 -0.024869150924727055 0.018532512858518979 0.016268528154394727 -0.054737789323939037 0.029265709625032055
leaf_weight=26.342621818184853 49.67267581820488 24.49984385073185 30.178878769278526 35.528926432132721 64.851267829537392 57.708676517009735 24.034190610051155 28.702538058161736 31.977319210767746 47.111379146575928 227.60970261693001 32.513341888785362 30.145155802369118 149.48679210245609 22.800891667604446 56.509933456778526 44.731876373291016 30.644335255026817 38.906650096178055 41.76579861342907 23.500963732600212 55.430299267172813 49.404710114002228 105.16097934544086 97.212362721562386 48.729068890213966 43.521712705492973 37.899887517094612 26.959617555141449 27.278744280338287
leaf_count=122 265 113 155 163 297 254 115 142 160 214 1032 154 138 729 110 272 236 134 183 182 109 251 230 494 456 219 210 184 116 137
internal_value=-0.0075107 -0.0119825 -0.0105263 0.00216362 -0.0132601 -0.0113112 -0.0249743 -0.00834032 -0.00982761 -0.00102703 -0.0147775 0.0161659 0.0042267 0.0060333 0.00345265 -0.00525828 0.0124068 -0.0161662 -0.0234848 -0.0347355 -0.0382241 -0.0115064 -0.00473052 -0.00830859 0.00386404 -0.0279298 0.00436639 -0.000913791 -0.0355081 0.00982385
internal_weight=1610.82 1101.61 1035.35 509.207 870.057 768.026 137.173 630.853 602.15 216.763 385.387 64.4907 473.678 443.533 393.86 199.642 194.219 115.853 93.0519 66.2656 54.1453 79.4645 157.778 152.272 165.291 102.031 92.9264 135.112 75.6887 83.7887
internal_count=7576 5100 4805 2476 4010 3553 620 2933 2791 1022 1769 314 2313 2175 1910 945 965 536 426 295 243 366 737 708 795 457 440 640 335 409
is_linear=0
shrinkage=0.05


Tree=13
num_leaves=31
num_cat=0
split_feature=11 25 17 13 15 23 3 11 0 6 11 25 3 8 29 25 15 27 28 17 27 12 17 9 2 12 17 8 15 6
split_gain=25.4458 13.058 11.3411 10.0841 9.63546 11.3086 9.52589 8.83579 9.20112 8.7552 8.25951 8.22716 8.08311 8.09898 7.26674 6.69229 6.58869 6.55715 6.29435 6.2578 6.00078 5.97555 6.43173 5.8572 6.26444 5.82655 5.78393 5.62642 7.14964 5.4866
threshold=68.907661437988295 0.051839726045727737 0.00015833587609995003 1.6383371949195864 0.12047228040524947 868796.44362630707 0.034055202266800637 46.054073333740241 20.286000251770023 0.8508652881707427 74.267955780029311 0.14332044869661334 0.020967055514969749 0.25881904510252091 -0.0024939584545791145 0.013484966475516559 0.49032685745889076 -0.20745781064033506 0.12943918257951739 0.72320141379967706 4.2257323265075692 18.442219734191898 0.11259403552856111 -0.12940952255126037 0.01181795494630933 32.982664108276374 0.19328855524495242 0.37940952255126054 0.26725686002076449 0.33601713114148973
decision_type=2 2 2 2 2 2 2 2 2 2 2 2 2 2 2 2 2 2 2 2 2 2 2 2 2 2 2 2 2 2
left_child=1 4 -2 -4 23 -6 9 16 12 10 21 25 26 -14 -10 -16 17 -7 19 -3 -13 -5 -23 -1 -25 -12 -9 29 -29 -24
right_child=2 18 3 6 5 7 -8 8 14 -11 11 20 13 -15 15 -17 -18 -19 -20 -21 -22 22 27 24 -26 -27 -28 28 -30 -31
leaf_value=-0.0095180896549560499 0.03636298259774786 -0.021867466654714854 0.026019064501512087 0.013478654844615447 0.023105942991289284 0.02078436136904762 0.015194002248358688 0.015098565927209996 -0.050038459940233919 -0.031890051635949247 0.020123863868252878 -0.033278943430029004 -0.0079863628289007418 -0.025827615606150902 -0.004769108187677791 -0.038124629539679628 0.027302809730804685 -0.011242434574434496 -0.01496832182507617 -0.051071086710587535 0.0018354356551157182 0.011598845367194367 -0.0027978432275523762 -0.019121225265389251 -0.050296944152463531 0.0015175599666593035 -0.0056602014444015556 -0.012558641545973991 -0.04691062952732377 -0.030879573211727102
leaf_weight=44.443124383687973 22.041682586073875 37.45629221200943 34.436529591679573 23.876388549804688 28.728153750300407 22.13947881758213 70.577952116727829 38.797072514891624 23.326455786824226 27.503188207745552 69.559358268976212 22.507231682538986 163.32339289784431 104.1863147765398 39.617095679044724 24.237569853663445 24.53093247115612 57.4624332934618 66.925537273287773 35.949658796191216 26.482738673686981 22.974258527159691 75.281912699341774 36.045660629868507 29.139883607625961 106.49071592092514 248.35415914654732 32.338132694363594 28.492127195000648 22.620215535163879
leaf_count=204 120 169 174 119 140 109 346 190 101 124 359 103 760 471 184 107 122 270 305 155 126 115 355 163 126 517 1164 150 126 102
internal_value=-0.00713869 -0.0118892 0.00117955 -0.000197554 -0.00964074 -0.00767741 -0.00190514 -0.0088629 -0.0110548 -0.0045394 -0.00279256 0.00382598 -0.00868134 -0.0149349 -0.0261548 -0.01743 0.00464696 -0.0023349 -0.0260585 -0.0361696 -0.014297 -0.0100375 -0.0131275 -0.0235148 -0.0330577 0.00886912 -0.00285548 -0.0167063 -0.0286487 -0.00928611
internal_weight=1609.85 1024.66 585.182 563.141 884.332 774.703 528.704 745.975 641.842 458.126 430.623 225.04 554.661 267.51 87.1811 63.8547 104.133 79.6019 140.331 73.406 48.99 205.583 181.707 109.629 65.1855 176.05 287.151 158.732 60.8303 97.9021
internal_count=7576 4740 2836 2716 4111 3618 2542 3478 2977 2196 2072 1105 2585 1231 392 291 501 379 629 324 229 967 848 493 289 876 1354 733 276 457
is_linear=0
shrinkage=0.05


Tree=14
num_leaves=31
num_cat=0
split_feature=11 25 17 7 13 7 11 27 7 7 12 15 2 13 13 13 15 15 11 15 25 11 29 3 7 15 9 11 13 5
split_gain=22.9662 11.8064 10.3444 9.78805 9.13781 9.34276 8.85859 13.4727 9.21622 9.76496 8.56656 8.23322 8.25834 7.11903 7.088 6.6625 6.52115 14.5316 10.4141 11.7842 10.8205 9.65382 7.84133 8.22225 9.45008 7.64622 7.44974 10.1674 6.41027 6.06784
threshold=68.907661437988295 0.051839726045727737 0.00015833587609995003 99.645320892333999 1.6383371949195864 91.536426544189467 75.518466949462905 0.80739837884902965 94.726909637451186 97.30249404907228 19.891776084899906 0.22024623686919007 0.4777244776487351 96.503852844238295 1.3081814050674441 35.631004333496101 0.30388613957486138 0.33827578483103116 57.947324752807624 0.65166148825794379 -0.010173849295824764 54.924619674682624 -0.0066150675993412724 0.022486162782750053 94.042781829833999 0.6343801473041083 0.37940952255126048 64.967788696289077 4.396388292312623 0.98565000295639049
decision_type=2 2 2 2 2 2 2 2 2 2 2 2 2 2 2 2 2 2 2 2 2 2 2 2 2 2 2 2 2 2
left_child=1 3 -2 11 -4 10 15 -8 -9 -10 -6 14 16 28 -1 -7 21 -18 19 22 -20 -13 -19 -24 -25 26 27 -22 -12 -23
right_child=2 -3 4 -5 5 6 7 8 9 -11 13 12 -14 -15 -16 -17 17 18 20 -21 25 29 23 24 -26 -27 -28 -29 -30 -31
leaf_value=-0.038071707485011298 0.034897302855021205 -0.024776781114455169 0.024824477333154238 0.019628901687435665 0.017545511598922557 0.0023090419082289022 0.044004933120433985 0.031394926478010864 -0.0281238160789649 0.014956588746207818 -0.023774325034068143 -0.014075591837712308 -0.023678077753500365 -0.031477430191078341 -0.013984362145402426 -0.027435706766823959 -0.035547075981767866 -0.026341607577140227 -0.030166113213024759 0.040530063941445586 -0.024989520272268199 0.027667102508442055 0.022191075426861696 -0.017726597010506929 0.023067391290666164 -0.028949837431596123 0.017658547372348701 0.018451374601185101 -0.0031668005966276414 -0.0040267065688964106
leaf_weight=34.406966373324394 21.824663132429123 140.2162126749754 34.292701199650764 28.570787608623505 30.463786497712135 97.501497894525528 31.150236293673515 22.909204095602036 26.328019037842751 26.287164956331253 47.195341885089874 36.731086373329163 61.802792429924011 34.957158759236336 271.82755464315414 23.330723702907562 40.755314588546753 23.156379505991936 56.771699875593185 20.849623024463654 37.917544275522232 47.549920871853828 44.895526885986328 47.087308958172798 20.32418167591095 24.612286195158958 43.921175673604012 20.890428930521011 188.29472737014294 22.13014218211174
leaf_count=152 120 629 174 141 152 468 168 117 122 132 220 171 279 157 1245 106 182 105 256 105 172 235 221 216 101 112 213 101 900 104
internal_value=-0.00678508 -0.0112975 0.0011231 -0.00915996 -0.000186829 -0.00180999 0.00583613 0.0163368 0.00492496 -0.00660034 -0.00759091 -0.0101213 -0.00645945 -0.0104223 -0.0166907 -0.00343418 -0.00427698 -0.00733212 -0.00395426 0.00553676 -0.0120122 0.00666702 0.000150829 0.00561326 -0.00542744 -0.00391877 0.00207828 -0.00955796 -0.00729682 0.0176013
internal_weight=1608.95 1024.42 584.535 884.201 562.711 528.418 227.507 106.675 75.5244 52.6152 300.911 855.63 549.395 270.447 306.235 120.832 487.593 381.181 340.426 156.313 184.113 106.411 135.463 112.307 67.4115 127.341 102.729 58.808 235.49 69.6801
internal_count=7576 4740 2836 4111 2716 2542 1113 539 371 254 1429 3970 2573 1277 1397 574 2294 1784 1602 748 854 510 643 538 317 598 486 273 1120 339
is_linear=0
shrinkage=0.05


Tree=15
num_leaves=31
num_cat=0
split_feature=11 6 7 24 7 13 11 15 15 8 11 10 22 12 15 11 7 9 11 29 27 18 13 13 29 12 27 13 6 24
split_gain=21.0909 13.8059 13.4069 13.3779 9.43426 9.2371 10.1922 8.87011 14.8404 11.2786 9.48063 9.34115 11.5488 10.155 11.368 7.6205 7.40998 6.71473 6.07775 8.09791 7.80022 6.93707 8.48894 13.8636 6.19656 6.06162 5.93804 5.87651 5.88759 5.81092
threshold=75.02582168579103 0.46180634815195182 99.645320892333999 0.12067968025803567 77.63135147094728 25.178519248962406 59.267032623291023 0.33827578483103116 0.3186464221322618 0.37940952255126054 57.947324752807624 2.5000000000000004 536205.37500000012 42.710832595825202 0.12575100023685074 50.296674728393562 92.505695343017592 -0.5 65.05045318603517 0.025767146609723571 0.49526299536228185 1.0000000180025095e-35 9.4250779151916522 3.7175291776657109 0.0020350437844172124 32.982664108276374 2.1464905738830571 1.9710434079170229 0.04043721061749616 0.010464291553944351
decision_type=2 2 2 2 2 2 2 2 2 2 2 2 2 2 2 2 2 2 2 2 2 2 2 2 2 2 2 2 2 2
left_child=1 2 7 4 -2 -3 -7 8 10 15 26 17 -13 14 -14 16 -9 -12 19 20 24 -20 23 -23 -17 -6 27 -1 -29 -24
right_child=3 5 -4 -5 25 6 -8 9 -10 -11 11 12 13 -15 -16 18 -18 -19 21 -21 -22 22 29 -25 -26 -27 -28 28 -30 -31
leaf_value=-0.032065827738741198 -0.011078053066803524 -0.0084100996939235114 0.021959355135150804 -0.019181972517624286 0.02685133897428555 -0.00876628951621382 -0.049658229536284661 0.0053127071134127348 -0.04460752579014754 -0.013558990186880424 -0.031099888087809276 -0.027761618820059144 -0.012004011919429682 -0.026402611425779994 0.01660450320504436 -0.028029409251996807 0.042583844471072142 -0.0084082866451848891 0.030352819787108989 -0.03404081429199482 0.0096468932672541183 0.014490291164952825 0.00094532254547579969 -0.031062571480344831 0.0027184488231634853 0.008591611187561304 -0.041117439157466719 0.012447698055074563 -0.015351128458639283 0.037667162474653237
leaf_weight=43.311662286520004 41.087752565741539 47.94314706325531 37.453504875302315 44.469212278723717 71.685846969485283 22.201011180877686 48.587533921003342 39.449389085173607 33.923989415168762 188.17575696110725 47.528487622737885 31.370668411254883 47.452177971601486 22.976092398166656 129.45938965678215 38.93305392563343 20.145671054720879 103.80554212629795 24.065975219011307 25.860979214310646 60.602708518505096 30.606611847877502 23.190931305289268 36.767129749059677 28.293116614222527 124.19062924385071 26.528733938932419 22.46647934615612 125.1374783962965 20.118888348340988
leaf_count=194 195 223 186 204 380 103 211 188 149 873 212 141 218 104 631 176 104 481 124 115 289 149 110 167 134 617 117 107 574 100
internal_value=-0.00644962 -0.00908753 -0.00748801 0.00598251 0.0107049 -0.0253563 -0.0368335 -0.00843053 -0.0124341 -0.00369713 -0.0106151 -0.005877 0.000443067 0.00486955 0.00893097 0.001635 0.0179119 -0.0155349 -0.00172801 -0.00852404 -0.00336175 0.00602326 0.000733275 -0.0103688 -0.0150887 0.0152742 -0.0189518 -0.0158718 -0.0111199 0.0180039
internal_weight=1607.79 1326.36 1207.62 281.433 236.964 118.732 70.7885 1170.17 633.961 536.21 600.037 382.592 231.258 199.888 176.912 348.034 59.5951 151.334 288.439 153.69 127.829 134.75 110.684 67.3737 67.2262 195.876 217.444 190.916 147.604 43.3098
internal_count=7576 6180 5643 1396 1192 537 314 5457 2928 2529 2779 1787 1094 953 849 1656 292 693 1364 714 599 650 526 316 310 997 992 875 681 210
is_linear=0
shrinkage=0.05


Tree=16
num_leaves=31
num_cat=0
split_feature=17 7 27 13 5 17 18 28 6 16 3 17 6 16 26 27 26 13 10 29 0 28 38 9 10 7 17 17 10 3
split_gain=17.4163 12.767 11.544 9.81547 11.6647 20.285 10.6197 9.20574 8.75586 7.93231 7.27807 7.15205 10.083 7.04207 6.92227 6.88249 8.35644 6.7477 8.16898 7.95844 6.42069 7.18954 6.85215 6.41025 6.27239 6.24139 6.17684 5.80678 5.88033 6.83462
threshold=4.4930569333365361e-06 97.691417694091811 -1.3039644956588743 41.503686904907234 1.6804999709129336 0.15765555193613548 2.5000000000000004 0.36717398464679724 0.35971445607945501 0.49032685745889076 0.022301351021157993 0.75088026337915736 0.12506279810206145 0.36683629022017861 0.0014342533540911975 2.2498339414596562 -0.063128478825092302 6.0330224037170419 2.5000000000000004 0.04844274744391442 0.06232000142335891 0.016574218869209293 1.0000000180025095e-35 1.0000000180025095e-35 3.5000000000000004 90.236892700195327 0.35125892569004036 0.39355581269873396 5.5000000000000009 0.020180459763235899
decision_type=2 2 2 2 2 2 2 2 2 2 2 2 2 2 2 2 2 2 2 2 2 2 2 2 2 2 2 2 2 2
left_child=-1 2 9 4 5 13 14 17 15 -2 -5 24 -13 -4 26 16 -3 18 23 20 21 -19 -22 -7 -8 -15 -6 -20 29 -29
right_child=1 8 3 10 6 7 11 -9 -10 -11 -12 12 -14 25 -16 -17 -18 19 27 -21 22 -23 -24 -25 -26 -27 -28 28 -30 -31
leaf_value=0.028869705160082238 0.014425689287252517 0.027587090222217919 -0.0043955959703899814 -0.030994084833375336 -0.023280142516652079 -0.041657538115552284 -0.0074709759551741754 0.017165350287740747 -0.016467407329780522 -0.01646551520348313 -0.012278508121449403 -0.031879278549239817 -0.0015806831949175964 0.040219401663349148 -0.017727396273158232 0.030826596333923359 -0.0016888009931500863 -0.027805760381045149 0.01591521498071739 -0.02483604809702001 -0.00038849521196900082 0.0036565802321086335 0.024008073665292007 -0.015831611234013426 0.023810757343971565 0.0070065974909891623 -0.057539909657109367 0.0048462870420639291 -0.027178837940349244 -0.020188815537283092
leaf_weight=34.772608742117882 83.55338878929615 31.21179524064064 23.739603012800217 86.413175821304321 26.957390084862709 39.712538003921509 37.969815120100975 35.585855320096016 40.524343520402908 27.660911113023758 130.23269799351692 49.518168121576309 61.640320584177971 37.680387273430824 103.35936756432056 30.693508297204971 111.27446518838406 39.219864770770073 21.8897784948349 39.181596428155899 151.71942143142223 33.811201572418213 35.519259423017502 60.832767859101295 27.72636716067791 22.646893635392189 25.698372840881348 65.727136760950089 43.564642801880836 46.583492994308472
leaf_count=184 405 157 113 389 124 175 177 173 190 129 601 222 289 195 478 155 536 178 107 180 717 161 174 279 136 113 111 316 198 214
internal_value=-0.00613105 -0.00690534 -0.00869283 -0.0100695 -0.00803528 -0.00435975 -0.0157361 -0.00751673 0.00445461 0.00674251 -0.0197436 -0.00734797 -0.0150779 0.0186734 -0.0252446 0.00935039 0.00472412 -0.00903696 -0.0146419 -0.00382771 -0.000665072 -0.0132396 0.00423954 -0.0260321 0.00573114 0.0277513 -0.0400004 -0.00819952 -0.011586 -0.00553761
internal_weight=1606.62 1571.85 1358.14 1246.93 1030.28 697.414 332.87 613.348 213.704 111.214 216.646 176.855 111.158 84.0669 156.015 173.18 142.486 577.762 278.31 299.451 260.27 73.0311 187.239 100.545 65.6962 60.3273 52.6558 177.765 155.875 112.311
internal_count=7576 7392 6354 5820 4830 3293 1537 2872 1038 534 990 824 511 421 713 848 693 2699 1289 1410 1230 339 891 454 313 308 235 835 728 530
is_linear=0
shrinkage=0.05


Tree=17
num_leaves=31
num_cat=0
split_feature=7 27 15 15 0 26 15 26 12 7 1 26 3 3 15 12 15 23 28 28 3 8 29 26 27 10 8 24 0 23
split_gain=11.6305 10.832 7.45302 12.5842 8.49714 9.08763 9.58363 8.28644 7.03104 7.60666 7.18535 6.87976 6.72675 6.49897 6.21729 8.39766 5.46721 6.4918 5.52085 5.22309 5.22023 4.81701 4.70421 6.22054 4.6837 6.67428 9.17654 4.65704 4.52842 4.77224
threshold=97.691417694091811 -1.3039644956588743 0.38746878680396152 0.43760078967129945 1.9864500164985659 0.23086076974868777 0.47044315902653916 -0.037201130762696259 21.242712020874027 92.733062744140639 0.62618336081504833 -0.012660005129873751 0.020967055514969749 0.033699740840950988 0.51485839306679204 26.961400985717777 0.49032685745889076 5636243.7271689801 -0.062083397060632699 0.028041722252964977 0.013440546277740502 0.60355339059327384 0.0015041421283967795 0.063927467912435545 -0.26254057884216303 5.5000000000000009 -0.37940952255126059 0.00723358546383679 1.3374999761581423 2995414.5399097386
decision_type=2 2 2 2 2 2 2 2 2 2 2 2 2 2 2 2 2 2 2 2 2 2 2 2 2 2 2 2 2 2
left_child=1 16 8 20 5 6 12 -8 10 -10 -3 -6 -5 24 -9 -16 17 18 -1 -15 -4 28 -22 -24 -2 26 -26 -28 29 -11
right_child=13 2 3 4 11 -7 7 14 9 21 -12 -13 -14 19 15 -17 -18 -19 -20 -21 22 -23 23 -25 25 -27 27 -29 -30 -31
leaf_value=0.0071000532555633798 -0.014644907592517657 -0.0010835029028775903 0.034537306921289139 0.00031356722851062346 0.0014976887240016553 -0.028899439935446154 -0.013984357612200555 0.033039218419142397 -0.018166056376179275 0.024646287433116157 -0.031327131754253487 -0.02723757429244001 -0.038186028312102827 0.0058874939646319235 -0.0069225375372797106 0.019198790323920214 -0.010842443119084404 -0.002455055614397475 0.040940715334250657 0.037372696287610682 -0.011675749992815966 -0.018326221613697024 0.032399524932459081 -0.0027982818344196702 0.033894698234370406 -0.017258806085938209 0.013799447153137091 -0.012669563792403422 -0.013135339891252885 -0.0020913585825614923
leaf_weight=21.994446456432343 40.939662799239159 195.92085978388786 20.736169666051865 20.966960713267326 28.123456716537476 30.523920863866806 44.501589000225067 25.57951594889164 422.15586626529694 26.774196207523346 21.826958924531937 80.315503478050232 24.725110337138176 29.140548348426819 62.443910196423531 60.656412377953529 30.805631130933762 35.592005372047424 26.662398278713226 24.037521854043007 24.698076292872429 49.52288430929184 25.359575852751732 24.856221064925194 30.10089685022831 26.686198860406876 33.371982023119926 33.100545659661293 39.500686258077621 44.302081942558289
leaf_count=106 193 924 107 101 133 139 208 128 1935 131 98 367 111 143 295 304 146 169 134 122 115 229 127 117 154 125 165 157 184 209
internal_value=-0.00582647 -0.00751005 -0.00883744 -0.00386545 -0.00796673 -0.00320954 7.31822e-05 0.00494385 -0.0117801 -0.0146467 -0.00411511 -0.0197851 -0.0205195 0.00492778 0.0106093 0.00594848 0.00718226 0.013773 0.0256437 0.0201194 0.0123355 -0.00536658 0.00618997 0.014977 7.77551e-06 0.00487454 0.0109907 0.000618984 0.000437506 0.00798062
internal_weight=1605.92 1388.54 1273.49 473.486 377.836 269.397 238.873 193.181 800.004 582.256 217.748 108.439 45.6921 217.377 148.68 123.1 115.054 84.2489 48.6568 53.1781 95.65 160.1 74.9139 50.2158 164.199 123.26 96.5734 66.4725 110.577 71.0763
internal_count=7576 6517 5962 2252 1786 1286 1147 935 3710 2688 1022 500 212 1059 727 599 555 409 240 265 466 753 359 244 794 601 476 322 524 340
is_linear=0
shrinkage=0.05


Tree=18
num_leaves=31
num_cat=0
split_feature=11 23 6 11 25 13 3 33 6 11 12 23 8 11 15 29 9 3 11 27 13 12 1 27 22 5 27 27 6 27
split_gain=19.2807 10.6805 10.2859 9.41832 8.86098 8.17262 9.96713 7.92144 6.61193 7.32256 7.21251 6.23752 6.21156 5.86524 8.65983 5.58831 7.66561 5.41067 5.31964 5.23523 6.07335 5.2757 7.05835 5.06356 4.7794 9.26874 4.75334 7.19254 5.47716 4.47831
threshold=68.907661437988295 708010.60497718875 0.48521320446674393 56.690902709960945 0.11765486747026445 6.2427086830139169 0.025339876369353764 0.081925436854362502 0.78199368287614235 77.234992980957045 31.60394382476807 3581104.0253284159 -0.70710678118654735 45.720479965209968 0.49032685745889076 0.13719931244850161 -0.78656609248549325 0.034055202266800637 74.267955780029311 -1.6723391413688657 1.3448730707168581 21.526858329772953 0.62618336081504833 0.83648750185966503 19993856.25 1.792949974536896 1.0096339583396914 1.7201096415519717 0.24058037049781245 1.8854715824127199
decision_type=2 2 2 2 2 2 2 2 2 2 2 2 2 2 2 2 2 2 2 2 2 2 2 2 2 2 2 2 2 2
left_child=1 -1 4 -4 7 26 8 13 9 12 -11 -12 -7 14 23 16 -8 18 -18 -15 -21 22 29 -3 25 -14 28 -28 -2 -22
right_child=5 2 3 -5 -6 6 15 -9 -10 10 11 -13 24 19 -16 -17 17 -19 -20 20 21 -23 -24 -25 -26 -27 27 -29 -30 -31
leaf_value=0.023688493165760355 0.023596470652323003 0.0050127402352440663 -0.0037875374055302289 -0.043517699116468418 -0.031090941981553141 0.0078584019100298181 0.03674305724152134 0.014943061147196655 -0.032020463424376276 0.026643355095281231 0.014692730938490257 -0.020416934683380718 0.0075015604222773147 0.0068619336059772551 0.028986850218771638 -0.013229074913052107 -0.021658014937078342 0.020685695879593881 0.0091299157298233378 -0.024153365844688659 0.0024788287928142277 -0.013327510910245925 -0.030711132745067468 -0.018494147010582565 -0.03084657844718889 -0.028334324077509812 -0.018356593748093168 0.013082893765528392 -0.002478836817664793 -0.019630133646702002
leaf_weight=23.43742148578167 81.489439621567726 52.064175397157669 22.956351533532143 42.592988729476929 43.714461341500282 30.339395269751549 25.713224768638611 35.995140865445137 26.418952390551567 28.702474698424339 22.933736443519592 28.211939752101898 37.496407121419907 40.364983901381493 22.913665607571602 25.530716195702553 23.960267156362534 37.860466137528419 33.853001326322556 85.351338118314743 166.40226957201958 397.33018597960472 21.588290825486183 40.909871608018875 42.666624784469604 34.780309289693832 29.739001363515854 46.85046511888504 26.749758422374725 26.56015732884407
leaf_count=114 416 250 107 186 194 148 131 176 119 151 113 133 181 192 115 118 110 189 168 388 786 1827 96 188 196 158 141 233 131 121
internal_value=-0.00553607 -0.00967521 -0.0104582 -0.0296036 -0.00911334 0.00171745 -0.00231338 -0.00803323 -0.00835681 -0.0055799 0.0065836 -0.00467375 -0.012265 -0.00900224 0.00145474 0.00803408 0.0125063 0.00599238 -0.00362991 -0.0106452 -0.0116587 -0.00991585 -0.00359774 -0.00533062 -0.0175766 -0.00974304 0.0104074 0.000875223 0.0171523 -0.000564341
internal_weight=1605.48 1022.18 998.744 65.5493 933.195 583.296 398.468 889.48 251.55 225.131 79.8482 51.1457 145.283 853.485 115.888 146.918 121.387 95.6737 57.8133 737.597 697.232 611.881 214.551 92.974 114.943 72.2767 184.829 76.5895 108.239 192.962
internal_count=7576 4740 4626 293 4333 2836 1915 4139 1199 1080 397 246 683 3963 553 716 598 467 278 3410 3218 2830 1003 438 535 339 921 374 547 907
is_linear=0
shrinkage=0.05


Tree=19
num_leaves=31
num_cat=0
split_feature=11 25 6 7 7 13 11 15 7 15 15 8 11 13 6 1 11 7 12 11 8 15 22 12 29 1 7 22 3 15
split_gain=17.5574 11.893 11.0622 11.1851 8.38914 8.12306 8.70492 7.01506 11.993 6.80779 13.4347 10.0267 8.47202 7.53298 6.71283 7.49027 6.65221 6.46627 6.0862 5.61789 7.50275 5.49866 9.05695 5.88704 5.37087 13.7858 7.61554 7.11365 6.47416 6.10021
threshold=75.02582168579103 0.099808458238840117 0.46180634815195182 99.645320892333999 77.63135147094728 25.178519248962406 59.267032623291023 0.45335711970726539 91.731075286865249 0.33827578483103116 0.3186464221322618 0.37940952255126054 57.947324752807624 38.969203948974616 0.084088811043450021 0.035913212224841125 50.296674728393562 92.505695343017592 22.446304321289066 45.720479965209968 1.0000000180025095e-35 0.53606101513953086 16083057.050000003 35.267414093017585 -0.0030546092893928285 0.054682102054357536 82.68982315063478 3645281.6000000001 0.031194018807239012 0.53313310396561076
decision_type=2 2 2 2 2 2 2 2 2 2 2 2 2 2 2 2 2 2 2 2 2 2 2 2 2 2 2 2 2 2
left_child=2 4 3 9 -2 -4 -7 8 -3 10 12 16 19 14 15 18 17 -11 -14 20 -1 22 -6 -24 25 -18 29 -28 -29 -26
right_child=1 7 5 -5 21 6 -8 -9 -10 11 -12 -13 13 -15 -16 -17 24 -19 -20 -21 -22 -23 23 -25 26 -27 27 28 -30 -31
leaf_value=0.016404228246767249 -0.0086701785936822724 -0.019877285500950498 -0.0063651758658889853 0.020722801241424449 0.026260443343280173 -0.0071131571315883706 -0.044941738905741491 -0.033364341361116961 0.021821333186430234 0.0055846918532657377 -0.041263661000446913 -0.012245937852226454 0.015612670012480501 -0.022611687584385448 0.0032948253854463818 -0.029568968174987217 0.0010358576425938497 0.040519587164934846 -0.014204865708350466 -0.021868402096963283 -0.018781051880763126 0.039334995679644491 0.017609774930623403 -0.014434490875662795 -0.021327306506561471 -0.044831113442277963 0.028623075860174742 0.011546905082098107 -0.016610474901004965 0.0084313528322255658
leaf_weight=26.016633599996567 35.429570809006691 37.94188579916954 47.922335296869278 37.281913533806801 69.441844403743744 22.186766982078552 48.3464145809412 21.920364737510681 31.608865141868591 39.396573886275291 33.828926235437393 188.06246273219585 28.649116471409798 49.407888099551201 222.89417295157909 38.53488789498806 57.554946154356003 19.954784706234932 42.502860367298126 154.76154257357121 36.276959121227264 25.883135840296745 25.404256135225296 32.888518393039703 44.637388676404953 22.900562718510628 37.830152750015259 67.716794013977051 29.224889025092125 28.037949278950691
leaf_count=125 169 174 223 186 360 103 211 102 157 188 149 873 139 223 1056 173 274 104 196 701 166 142 134 158 205 101 186 328 135 135
internal_value=-0.00526224 0.00610066 -0.00766985 -0.00623715 0.013262 -0.0222499 -0.0330425 -0.00869993 -0.000926433 -0.00709755 -0.010608 -0.00294735 -0.00887684 -0.00439461 -0.0016883 -0.0118145 0.00208849 0.0173303 -0.00219893 -0.016765 -0.00408608 0.0183203 0.014062 -0.000469454 -0.00105362 -0.0120195 0.00319936 0.0102343 0.00305833 -0.0098465
internal_weight=1604.45 280.518 1323.93 1205.47 189.047 118.456 70.5332 91.4711 69.5508 1168.19 632.873 535.317 599.044 381.989 332.581 109.687 347.254 59.3514 71.152 217.055 62.2936 153.618 127.735 58.2928 287.903 80.4555 207.447 134.772 96.9417 72.6753
internal_count=7576 1396 6180 5643 963 537 314 433 331 5457 2928 2529 2779 1787 1564 508 1656 292 335 992 291 794 652 292 1364 375 989 649 463 340
is_linear=0
shrinkage=0.05


Tree=20
num_leaves=31
num_cat=0
split_feature=11 23 25 13 3 7 12 15 25 3 25 11 3 28 9 12 27 11 25 27 40 25 24 29 7 26 0 3 15 25
split_gain=16.4238 9.71301 8.94408 7.50137 7.59739 7.41878 8.7956 8.68179 7.66601 7.28633 7.17857 6.87165 8.04612 6.59123 6.11789 6.06089 5.96378 6.46833 5.7407 5.85907 5.32462 5.23189 5.00226 4.95998 4.87653 4.86039 4.83186 5.10145 7.68817 6.46022
threshold=68.907661437988295 708010.60497718875 0.051839726045727737 1.6383371949195864 0.034055202266800637 97.049911499023452 33.094356536865241 0.11603922784596496 -0.015650399960577484 0.01559515597673845 0.04527683928608895 76.368244171142592 0.017480091568188756 0.32356245815753942 0.37940952255126048 18.853151321411136 0.15898682922124865 63.022039413452156 -0.018355893902480599 -0.71067255735397328 1.0000000180025095e-35 0.024438288062810901 0.16070242226123813 0.00079590073437429975 89.295764923095717 0.19165103137493136 5.865999937057496 0.022395203872809702 0.57383831880247194 0.0021089474903419618
decision_type=2 2 2 2 2 2 2 2 2 2 2 2 2 2 2 2 2 2 2 2 2 2 2 2 2 2 2 2 2 2
left_child=1 -1 5 -2 10 7 8 9 -7 -3 11 15 24 22 26 -5 -4 -18 20 -20 -16 -17 25 -10 -13 -12 27 -9 29 -29
right_child=3 2 16 4 -6 6 -8 14 23 -11 13 12 -14 -15 18 21 17 -19 19 -21 -22 -23 -24 -25 -26 -27 -28 28 -30 -31
leaf_value=0.023012723388513252 0.02396684249947912 -0.010077531626408348 0.0024810943803364577 0.021729698320886986 0.015153779120535086 0.016852537533904234 0.023083375059379858 -0.0033805814192708751 -0.030319935862689964 -0.040643279904615359 -0.016060368001223759 -0.012562987445660416 0.030802938955387354 0.014213607392179479 -8.9959618017407348e-05 -0.010062077565890736 -0.038591671298794601 -0.014789793968427212 0.017762031063532049 -0.0025219527182935423 -0.026611698019754555 0.011976673500379315 -0.035279648590298467 -0.0033272748161075013 0.018123386657017279 0.0042252988140418788 -0.023579222865974869 -0.011995457786339935 0.0077556019477455487 -0.038328591760150348
leaf_weight=23.407770320773125 35.515741840004921 38.681734263896942 21.829785138368607 22.801923379302025 73.966343864798546 28.863955169916153 38.817518532276154 159.74910587072372 27.542496934533119 39.313366368412971 96.663434281945229 29.010430097579956 40.518751338124275 24.94679257273674 35.465162694454193 136.70313529670238 54.106631428003311 60.415622428059578 45.100103870034218 169.02776350080967 40.576456815004349 33.535440549254417 22.487414419651031 44.541387617588043 23.381248325109482 42.515055641531944 74.199258044362068 53.144450038671494 24.768564388155937 41.4610855281353
leaf_count=114 183 177 102 115 367 143 193 750 126 172 457 141 213 122 167 646 238 275 218 792 183 163 100 211 124 205 334 244 118 183
internal_value=-0.005003 -0.00882416 -0.00957118 0.00170001 0.000253023 -0.00768743 0.00285609 -0.0097299 -0.00492192 -0.0254842 -0.00207926 0.00289907 0.0140715 -0.00970768 -0.00782039 -0.00247821 -0.0214697 -0.0260351 -0.00244068 0.00175031 -0.0142422 -0.00572065 -0.013399 -0.0136409 0.00113166 -0.00986368 -0.0122385 -0.00922384 -0.0170434 -0.023536
internal_weight=1603.06 1021.01 997.604 582.046 546.53 861.252 139.765 721.487 100.948 77.9951 472.564 285.951 92.9104 186.613 643.492 193.04 136.352 114.522 290.169 214.128 76.0416 170.239 161.666 72.0839 52.3917 139.178 353.322 279.123 119.374 94.6055
internal_count=7576 4740 4626 2836 2653 4011 673 3338 480 349 2286 1402 478 884 2989 924 615 513 1360 1010 350 809 762 337 265 662 1629 1295 545 427
is_linear=0
shrinkage=0.05


Tree=21
num_leaves=31
num_cat=0
split_feature=17 17 17 37 6 3 22 10 15 17 27 23 29 9 27 10 26 22 12 27 15 3 22 24 9 10 17 17 6 27
split_gain=14.6903 8.71358 12.679 14.8238 7.12048 8.33331 7.64174 8.44575 10.7864 10.7962 8.04656 7.9884 8.82352 7.48134 7.47118 7.69152 6.77271 6.51517 11.7784 7.65818 6.21525 5.49031 5.39025 6.15937 5.06579 10.6085 5.70316 7.50274 6.14035 4.89698
threshold=4.4930569333365361e-06 0.00088294057197580019 0.010825298791106401 1.0000000180025095e-35 0.48521320446674393 0.030971314140010222 499947.85500000004 1.5000000000000002 0.36007461077740394 0.16947385183423561 -0.28020115196704859 3769552.4405033975 -0.0015924476319923995 0.78656609248549303 0.85388347506523143 3.5000000000000004 -0.03849110193550586 4046871.0000000005 29.699571609497074 1.3065821528434756 0.4585202797913584 0.02933740169681465 47826450.000000007 0.0089719784446060675 -0.37940952255126015 3.5000000000000004 0.40170575438986456 0.68996777028562051 0.11589655638442548 1.1456193923950198
decision_type=2 2 2 2 2 2 2 2 2 2 2 2 2 2 2 2 2 2 2 2 2 2 2 2 2 2 2 2 2 2
left_child=-1 -2 3 -3 6 22 11 8 13 -10 -11 -4 -13 16 24 29 -8 18 -17 -19 -5 -12 23 -6 -9 26 -26 -28 -29 -16
right_child=1 2 4 20 5 -7 7 14 9 10 21 12 -14 -15 15 17 -18 19 -20 -21 -22 -23 -24 -25 25 -27 27 28 -30 -31
leaf_value=0.02756998428034238 -0.03478394473899004 -0.017755022679354773 -0.00143417588645006 0.054079370343965552 -0.015037703067959275 0.0053457498345025126 -0.000837517477621569 -0.0034110446324751272 0.033852513751782408 -0.026350921266010296 -0.0051823612780721095 -0.045970501873609598 -0.013528108467802488 -0.0013714202291198335 -0.035810818350621311 -0.0069008513343753897 -0.028814483904830008 0.01378159180379751 0.04057089251019922 -0.0091378081906667366 0.015299538977381505 0.025257346746884818 -0.0041514324084138401 -0.041117102589128221 0.042787511995358074 0.00081668043739166322 -0.010844241602974694 0.0055699980842479112 0.040242155719731144 -0.010684327757261461
leaf_weight=34.389311343431473 24.940353825688362 20.308045133948326 64.630975052714348 20.372508570551872 44.321541428565979 35.427778527140617 26.624828517436981 151.58584985136986 21.093443736433983 31.715851843357086 49.211151778697968 31.274944230914116 63.535278722643852 51.813110321760178 22.854665532708168 27.78204682469368 115.36169490218163 46.409131571650505 24.668357878923416 169.78516599535942 20.964207023382187 21.192874789237976 30.815491080284119 46.281910568475723 23.513939142227173 180.38904233276844 20.875344157218933 23.169403895735741 28.448132693767548 127.95826157927513
leaf_count=184 114 95 305 111 205 169 125 720 107 144 230 138 294 243 103 130 521 226 123 795 110 104 145 205 120 863 98 111 143 595
internal_value=-0.00475668 -0.00546597 -0.0049919 0.0172262 -0.00591686 -0.0159902 -0.00472343 -0.00331778 -0.0102799 0.00128695 -0.00543965 -0.0149894 -0.0242298 -0.0176339 -0.000713349 -0.00545554 -0.0235683 -0.000382569 0.015426 -0.00421784 0.0344119 0.00398054 -0.0222156 -0.0283595 0.00393439 0.0079629 0.0213901 0.0144496 0.024679 -0.0144921
internal_weight=1601.71 1567.33 1542.38 61.6448 1480.74 156.847 1323.89 1164.45 317.013 123.213 102.12 159.441 94.8102 193.8 847.439 419.458 141.987 268.645 52.4504 216.194 41.3367 70.404 121.419 90.6035 427.982 276.396 96.0068 72.4929 51.6175 150.813
internal_count=7576 7392 7278 316 6962 724 6238 5501 1474 585 478 737 432 889 4027 1972 646 1274 253 1021 221 334 555 410 2055 1335 472 352 254 698
is_linear=0
shrinkage=0.05


Tree=22
num_leaves=31
num_cat=0
split_feature=17 7 22 13 17 18 28 6 12 9 17 10 15 28 15 24 22 15 17 12 7 24 27 26 13 27 3 15 3 25
split_gain=13.3216 9.25752 8.57269 8.48325 7.24341 19.3079 7.16441 7.11689 6.86733 8.18217 14.3426 10.5999 11.8687 8.87256 7.90138 7.89714 9.91676 6.8832 6.21121 6.16463 10.5788 6.88448 6.15028 7.31078 6.10355 6.89358 5.94625 5.81333 6.65168 7.14966
threshold=4.4930569333365361e-06 97.691417694091811 499947.85500000004 41.503686904907234 0.018960755367039454 1.5000000000000002 0.12943918257951739 0.35971445607945501 53.03648757934571 0.60355339059327384 0.36110480303637399 2.5000000000000004 0.27646315699063823 -0.11385037004947661 0.19936339886360124 0.00723358546383679 4754817.0000000009 0.11603922784596496 0.72320141379967706 23.218471527099613 82.131305694580092 0.0036547121126204733 2.2498339414596562 -0.063128478825092302 3.8674767017364506 0.90075561404228222 0.020180459763235899 0.36489858396091734 0.019832756408202694 0.013908280059695246
decision_type=2 2 2 2 2 2 2 2 2 2 2 2 2 2 2 2 2 2 2 2 2 2 2 2 2 2 2 2 2 2
left_child=-1 2 6 4 5 -4 -2 22 9 11 26 24 14 -14 19 17 -17 -12 -5 -13 -21 -22 23 -3 25 -6 -11 -15 -29 -30
right_child=1 7 3 18 8 -7 -8 -9 -10 10 15 12 13 27 -16 16 -18 -19 -20 20 21 -23 -24 -25 -26 -27 -28 28 29 -31
leaf_value=0.026362869833426852 -0.024011968784937041 0.026031685418597985 0.041475073818060669 -0.0044401366140162995 -0.015807613348044255 -0.011195759671447359 6.8534861342950528e-05 -0.014383075937612594 -0.030009206794272637 0.047545226537552249 -0.032446062449062056 0.014626979257938558 0.017224854581663767 -0.03217123387428901 0.024378954697413153 0.039713363706482915 0.001231003343800837 -0.0037953109281042997 -0.022179492114866656 -0.033929932979088431 -0.010782293289123453 0.027294997706060888 0.029310291456225213 -0.0014409000872857144 -0.010601326279048674 -0.049012788582878816 0.010438401101313041 0.005256969411560692 -0.037668249702537154 -0.0053156103379737793
leaf_weight=34.171399682760239 116.68606205284595 30.970506638288498 31.166853785514832 86.020315870642662 40.030746817588806 39.388830944895744 42.007835775613785 40.43324601650238 25.7501120865345 21.986477628350258 23.951367631554604 47.785627320408821 23.933347806334496 39.017098441720009 48.858388885855675 22.020262032747269 69.831651002168655 168.03095349669456 115.73494979739189 26.256449401378632 27.813094243407249 20.709850937128067 30.46095035970211 111.03695870935917 155.9147270321846 25.64323203265667 21.212659239768982 44.588920041918755 30.401489168405533 38.962190076708794
leaf_count=184 530 157 172 403 184 185 198 190 116 114 107 230 118 177 242 110 332 791 526 117 129 102 155 536 722 112 102 216 136 183
internal_value=-0.00452095 -0.0051946 -0.00671889 -0.00526891 -0.00337025 0.0120707 -0.0176376 0.00449732 -0.00455097 -0.0038201 0.0024841 -0.00743762 -0.00199891 -0.0110844 0.00737695 -0.00160092 0.0104566 -0.00736973 -0.0146161 0.000599406 -0.00836451 0.0054693 0.00892361 0.00455062 -0.015987 -0.028773 0.0293242 -0.0155136 -0.00981001 -0.0194955
internal_weight=1600.78 1566.61 1353.7 1195.01 993.254 70.5557 158.694 212.902 922.699 896.949 327.033 569.915 348.326 176.903 171.423 283.834 91.8519 191.982 201.755 122.565 74.7794 48.5229 172.468 142.007 221.589 65.674 43.1991 152.97 113.953 69.3637
internal_count=7576 7392 6354 5626 4697 357 728 1038 4340 4224 1556 2668 1650 830 820 1340 442 898 929 578 348 231 848 693 1018 296 216 712 535 319
is_linear=0
shrinkage=0.05


Tree=23
num_leaves=31
num_cat=0
split_feature=11 23 7 13 11 17 22 3 18 7 15 17 26 10 13 17 17 27 12 5 22 11 22 15 3 1 12 17 7 7
split_gain=14.8569 8.83836 8.8218 8.1562 7.4438 7.28907 6.20343 7.88613 10.1051 7.94567 6.85267 7.06486 8.30417 11.7634 9.1516 7.73497 6.89035 6.80308 6.63213 6.42614 8.06038 8.45093 8.39391 8.18216 6.07084 5.65863 5.42416 7.84993 9.93414 7.11044
threshold=70.220611572265639 708010.60497718875 97.049911499023452 42.79742622375489 50.024892807006843 0.90423138672904557 499947.85500000004 0.020862358042863873 1.0000000180025095e-35 95.074192047119155 0.56404814560703043 0.19328855524495242 -0.02580649126321077 3.5000000000000004 1.3448730707168581 0.71434297141595759 0.78623280393989148 -0.26254057884216303 25.083845138549808 0.065479997545480742 17323998.699999999 53.503519058227546 6147171.0000000009 0.24190177321309972 0.03168466007345732 9.6406991360709085e-05 33.094356536865241 0.018960755367039454 92.326000213623061 95.739501953125014
decision_type=2 2 2 2 2 2 2 2 2 2 2 2 2 2 2 2 2 2 2 2 2 2 2 2 2 2 2 2 2 2
left_child=1 -1 3 5 -4 6 17 8 -8 19 11 -10 -13 15 -15 -14 -17 -3 -16 24 21 -21 -23 -22 -9 -2 -27 -28 -29 -30
right_child=25 2 4 -5 -6 -7 7 9 10 -11 -12 12 13 14 18 16 -18 -19 -20 20 23 22 -24 -25 -26 26 27 28 29 -31
leaf_value=0.02180873323916372 -0.021022692301840264 3.8259301123946695e-05 0.024228732578055738 -0.023187337338582421 -0.0027768514588221733 -0.033879005354496554 0.031155692794140939 -0.014363701180006705 0.024490715900488749 0.011341930493872415 -0.027403424161781029 0.010850676758266698 -0.042024053156211175 -0.02435334527564768 0.020713037502626354 0.0093871209592580208 -0.024652923190858569 -0.029152795228271605 -0.0069320317962281042 -0.00034782962221481913 -0.024461936990517255 -0.014161679534820674 -0.046042440050095675 0.010497721811290436 -0.04574574210535922 0.0095409440458985671 0.020198069036163949 -0.013887451247120111 0.025750577839057476 -0.0031621082061521807
leaf_weight=25.014168456196785 23.755180597305298 29.385229378938675 31.098717913031578 107.31007005274296 142.16468214988708 27.302707374095917 23.024705335497856 33.703773871064186 25.009315073490143 33.187108278274536 26.667716339230537 76.716438978910446 30.924512967467308 25.228749558329582 54.457876965403557 24.271952971816063 38.363181382417679 62.223111480474472 36.060806334018707 42.875116586685181 22.681907474994659 49.010716021060944 35.675332099199295 63.855307832360268 28.393671870231628 229.18512703478336 36.943947046995163 124.75553658604622 34.457386180758476 55.540376096963882
leaf_count=122 112 137 162 485 670 121 117 155 124 158 121 367 136 115 266 115 173 278 167 201 102 224 156 304 124 1144 204 576 172 268
internal_value=-0.00429849 -0.00757067 -0.00825775 -0.0102542 0.00207033 -0.00849524 -0.0075854 -0.00591706 -0.000893755 -0.011774 -0.00307891 -0.000993348 -0.00322162 -0.00837948 0.00227745 -0.0215637 -0.011462 -0.0197892 0.0096998 -0.0145515 -0.0104441 -0.0184348 -0.027592 0.00133459 -0.0287129 0.00279919 0.00397597 -0.00109126 -0.00475366 0.00790767
internal_weight=1599.24 1094.61 1069.59 896.329 173.263 789.019 761.717 670.108 360.725 309.383 337.701 311.033 286.024 209.307 115.747 93.5596 62.6351 91.6083 90.5187 276.196 214.098 127.561 84.686 86.5372 62.0974 504.638 480.882 251.697 214.753 89.9978
internal_count=7576 5100 4978 4146 832 3661 3540 3125 1701 1424 1584 1463 1339 972 548 424 288 415 433 1266 987 581 380 406 279 2476 2364 1220 1016 440
is_linear=0
shrinkage=0.05


Tree=24
num_leaves=31
num_cat=0
split_feature=11 17 25 6 13 11 25 15 17 28 26 22 23 29 10 15 17 27 17 15 17 15 11 29 17 23 24 25 29 23
split_gain=13.6568 9.8901 9.58956 9.43035 7.7406 7.37395 7.03479 6.76768 6.76756 5.92003 5.7334 7.55614 7.43844 7.87489 6.14573 11.7091 9.79096 10.2594 7.73197 8.96567 6.84799 6.33634 9.64517 7.59264 9.34895 6.74409 6.69322 6.24543 6.97204 6.26705
threshold=75.02582168579103 4.4930569333365361e-06 0.099808458238840117 0.46180634815195182 20.933113098144535 59.267032623291023 0.020221021957695488 0.45335711970726539 0.72534675235847701 0.13311868160963061 0.23086076974868777 499947.85500000004 3492154.4995225901 -0.0020859851501882072 1.5000000000000002 0.36235323065004621 0.16947385183423561 -0.26254057884216303 0.71434297141595759 0.24503218180937852 0.88950714025592859 0.44440546214193005 60.707590103149421 0.018982823006808761 0.33690512115811039 2397114.3701575636 0.029092153534293178 0.021072515286505226 -0.0092438468709588033 13158908.920718385
decision_type=2 2 2 2 2 2 2 2 2 2 2 2 2 2 2 2 2 2 2 2 2 2 2 2 2 2 2 2 2 2
left_child=1 -1 9 10 -5 -6 -7 8 -4 -2 11 12 -3 -14 15 18 -17 -18 -13 -20 21 22 -16 24 -23 -26 -25 28 -24 -29
right_child=2 3 7 4 5 6 -8 -9 -10 -11 -12 14 13 -15 20 16 17 -19 19 -21 -22 23 27 26 25 -27 -28 29 -30 -31
leaf_value=0.026837128827983711 0.0079133231353379751 0.00039756340985877808 0.022235593138103183 -0.0034422184427522402 -0.0061755850606103786 -0.060344051652514434 -0.02317110270126033 -0.031530703815652338 -0.010794935474882852 0.029885655428102276 -0.016865899397027311 -0.033036180893463739 -0.04724407102728579 -0.014303936822898395 -0.0033112287319018636 0.031724184515045814 -0.028455334664981374 0.0084811014357798892 -0.019207903726767492 0.014805408771859466 -0.017872254969687553 -0.031976459254652076 -0.0037352822818582211 0.030466651102170835 -0.026249729875023504 0.0029940483113061809 -0.0073104538688525166 0.010683812260033509 0.023880425494096913 -0.017021433834831567
leaf_weight=22.25230710208416 148.89244705438614 47.189165696501732 23.383760169148445 42.577404946088791 22.176667705178261 24.089344456791878 26.984022781252861 21.93210032582283 46.039949283003807 38.60397145152092 100.54027625918388 56.069694817066193 26.071602150797844 59.670730277895927 212.12134309113026 23.665394634008408 29.357048392295837 52.27694796025753 69.071293875575066 26.927241444587708 51.617269515991211 41.880703032016754 28.84694604575634 22.890546157956123 26.047728508710861 81.091280803084373 24.038036048412323 60.261134624481201 110.03859426081181 30.86699703335762
leaf_count=116 760 222 116 199 103 103 122 102 215 203 461 250 114 274 998 121 132 248 314 129 236 192 136 115 119 385 112 290 547 142
internal_value=-0.0040881 -0.00621405 0.00596502 -0.00678138 -0.020396 -0.0302505 -0.0407042 -0.00731843 0.000330629 0.0124372 -0.0054456 -0.00438245 -0.0155456 -0.02432 -0.00281559 -0.00940914 0.00340711 -0.0048019 -0.0182837 -0.00966729 -0.000355148 0.00106188 0.00437887 -0.00642252 -0.0119457 -0.00411572 0.0111162 0.0114708 0.0181446 0.00129947
internal_weight=1597.47 1318.62 278.852 1296.37 115.827 73.25 51.0734 91.3558 69.4237 187.496 1180.54 1080 132.931 85.7423 947.068 257.368 105.299 81.634 152.068 95.9985 689.701 638.083 442.135 195.948 149.02 107.139 46.9286 230.014 138.886 91.1281
internal_count=7576 6180 1396 6064 527 328 225 433 331 963 5537 5076 610 388 4466 1194 501 380 693 443 3272 3036 2113 923 696 504 227 1115 683 432
is_linear=0
shrinkage=0.05


Tree=25
num_leaves=31
num_cat=0
split_feature=11 25 6 7 15 23 12 25 29 10 33 9 27 6 24 7 12 9 24 11 25 9 29 29 6 27 3 3 13 24
split_gain=12.5984 8.13744 7.08675 7.91604 9.80572 10.1067 7.33316 6.89376 6.60512 7.08353 8.06644 7.0558 6.51288 6.24583 6.1673 5.86302 8.87486 7.88573 5.76787 5.69748 7.00154 5.68536 5.54274 5.41789 5.18594 5.06025 6.88344 4.83664 6.76866 4.56813
threshold=69.406364440917983 0.051839726045727737 0.69988758406062801 97.049911499023452 0.11603922784596496 868796.44362630707 32.654094696044929 -0.021716744638979431 -0.019884303212165829 2.5000000000000004 0.076882481575012221 -0.12940952255126037 0.055716214701533325 0.81960564708021699 0.00063602978480048488 82.131305694580092 33.175556182861335 -0.70710678118654757 -0.0068657624069601289 74.886493682861342 0.14831512421369555 0.25881904510252057 -0.0052260917145758859 0.00079590073437429975 0.024405199539784265 1.7984127998352053 0.020473272888069809 0.02349877010372026 16.63549900054932 -0.0079505136236548406
decision_type=2 2 2 2 2 2 2 2 2 2 2 2 2 2 2 2 2 2 2 2 2 2 2 2 2 2 2 2 2 2
left_child=1 2 3 4 21 -6 7 -5 -7 11 24 14 -3 15 18 16 17 -2 -10 27 29 -1 -13 -9 -11 -26 -27 28 -17 -21
right_child=13 12 -4 6 5 8 -8 23 9 10 -12 22 -14 -15 -16 19 -18 -19 -20 20 -22 -23 -24 -25 25 26 -28 -29 -30 -31
leaf_value=-0.010206725673438125 -0.016839834446656949 0.0076502469211151202 -0.032061492939854885 0.024196322732276905 0.025306359737427994 -0.026290441858523445 0.024338984174036401 -0.024037663062063119 -0.022769277864978069 -0.022647246364006852 0.030601604123336207 0.018581054324656929 -0.022290426078181241 -0.017272758963179074 -0.031366114281203977 0.0018973301717514811 -0.016718539732013243 0.017563314491669198 0.010872829672631867 -0.0012494554273951156 -0.0035173021960539091 -0.036556493136071927 -0.0078374280841081168 0.002898586451200863 -0.0025341242359706393 0.037063507185539309 -0.0035529536320922928 0.012508556575667774 -0.02591345782802228 0.023490181665146305
leaf_weight=42.32685250043869 23.786190629005432 21.213579759001732 24.105267077684402 21.361622259020805 27.069511488080025 37.342546701431274 40.266415074467659 31.104285165667534 28.440009117126465 27.075934261083603 20.554920643568039 23.523619189858437 126.30873239040375 38.094261169433594 59.09668405354023 88.516887038946152 75.218504920601845 55.570445910096169 23.079914674162865 22.439128190279007 44.851856917142868 39.645788431167603 127.27258259057999 46.689803600311279 239.74221260845661 20.433924913406372 21.309972003102303 59.59656397998333 29.061431631445885 110.76646645367146
leaf_count=194 112 100 108 108 133 168 202 143 129 123 104 113 571 176 265 430 351 278 110 116 214 176 591 224 1127 102 99 291 132 586
internal_value=-0.00388746 -0.0070997 -0.00531633 -0.00458066 -0.00664768 -0.00460719 0.00634459 -0.000962801 -0.00589686 -0.00460726 0.00027322 -0.0107517 -0.017985 0.00225655 -0.0203428 0.00371584 -0.00441273 0.00725139 -0.00769827 0.00725289 0.0135694 -0.0229507 -0.00371625 -0.00787129 -0.00174711 0.000263256 0.0163291 0.000904928 -0.00497657 0.0193227
internal_weight=1595.87 1047.96 900.442 876.337 736.914 654.942 139.422 99.1557 627.872 590.53 329.117 261.413 147.522 547.902 110.617 509.807 154.575 79.3566 51.5199 355.232 178.057 81.9726 150.796 77.7941 308.562 281.486 41.7439 177.175 117.578 133.206
internal_count=7576 4890 4219 4111 3434 3064 677 475 2931 2763 1555 1208 671 2686 504 2510 741 390 239 1769 916 370 704 367 1451 1328 201 853 562 702
is_linear=0
shrinkage=0.05


Tree=26
num_leaves=31
num_cat=0
split_feature=11 23 11 6 7 15 13 3 12 6 17 17 17 7 11 15 25 3 12 1 15 7 11 1 12 23 17 26 25 26
split_gain=11.4073 7.5118 7.65955 9.69868 7.14386 6.36511 6.30744 6.70763 6.17979 6.09418 6.02918 9.07758 12.2066 9.41547 9.6585 6.62463 7.84507 6.51064 6.45783 5.62691 6.37932 5.53033 7.1959 8.80396 6.85921 5.66269 5.60317 5.49607 7.89672 5.47151
threshold=68.907661437988295 708010.60497718875 50.024892807006843 0.49423283547279639 97.199645996093764 0.38746878680396152 1.6383371949195864 0.034055202266800637 26.738518714904789 0.81960564708021699 0.27923106088329025 0.67798648600247058 0.69774436064138479 98.85385894775392 57.24249458312989 0.48620402007870572 0.0074199161026626834 0.025339876369353764 20.957797050476078 0.0012615261948667469 0.39280447000589741 77.63135147094728 74.886493682861342 0.00045145681360736495 32.805694580078132 2424391.0404179338 0.11259403552856111 -0.029056505300104615 0.015949253924191002 0.040987301617860801
decision_type=2 2 2 2 2 2 2 2 2 2 2 2 2 2 2 2 2 2 2 2 2 2 2 2 2 2 2 2 2 2
left_child=1 -1 4 10 5 -3 -2 9 -5 21 27 18 -13 14 -14 16 -16 -18 -12 -20 -21 -8 26 -24 -25 -26 -23 -4 -29 -28
right_child=6 2 3 8 -6 -7 7 -9 -10 -11 11 12 13 -15 15 -17 17 -19 19 20 -22 22 23 24 25 -27 29 28 -30 -31
leaf_value=0.021187742000549788 0.022439392962249068 -0.0094657054769186136 -0.015445376017342478 -0.047727169003263542 0.023709719203388692 0.01035350321038267 -0.01146891708844789 0.014619591925597511 -0.011980666415914252 -0.022778032891264389 -0.0055654029175348299 0.025171564837394047 -0.024059820947484108 0.016793360794489214 0.00626457025598408 -0.029743268353202193 -0.0054550692598629574 -0.0316223920706208 -0.0042618290189243074 -0.046160779621303959 -0.020144178732338092 0.017348999330192048 -0.017870982948059812 0.029033548889940836 0.028993866633123217 -0.0004825187892639852 -0.016740405178227762 0.020167240840534423 -0.0085621423551847878 0.0018453803976026179
leaf_weight=23.272054985165596 35.123513236641884 120.62708766758442 36.004258677363396 26.522550642490387 29.522774577140808 60.995578125119209 85.837754100561142 73.540233686566353 22.219581410288811 31.733336806297302 51.162581071257591 28.102401554584503 104.5288562476635 32.727461934089661 110.79646457731724 26.683727011084557 96.347140192985535 31.556510910391808 22.300329923629761 43.83524914085865 50.94654655456543 26.067223057150841 23.997644886374474 53.501252874732018 21.30679552257061 69.248527526855469 81.107565641403198 53.959278404712677 42.962461575865746 77.376551643013954
leaf_count=114 183 557 167 116 155 294 404 367 102 145 239 137 473 159 524 119 449 141 104 192 232 135 118 290 110 342 376 266 200 366
internal_value=-0.0036975 -0.00689169 -0.00755055 -0.00983574 0.00089831 -0.00280969 0.00190392 0.000577355 -0.0314318 -0.00161899 -0.00839754 -0.0105353 -0.00668845 -0.00891213 -0.0111864 -0.00611583 -0.00347457 -0.0119111 -0.0203842 -0.0268597 -0.0321765 -8.75547e-05 0.00268311 0.0101683 0.0148392 0.00645299 -0.00413296 0.00123572 0.00743238 -0.00766628
internal_weight=1593.91 1015.07 991.801 780.655 211.145 181.623 578.84 543.717 48.7421 470.177 731.913 598.987 430.743 402.64 369.913 265.384 238.7 127.904 168.245 117.082 94.7818 438.443 352.606 168.054 144.057 90.5553 184.551 132.926 96.9217 158.484
internal_count=7576 4740 4626 3620 1006 851 2836 2653 218 2286 3402 2769 2002 1865 1706 1233 1114 590 767 528 424 2141 1737 860 742 452 877 633 466 742
is_linear=0
shrinkage=0.05


Tree=27
num_leaves=31
num_cat=0
split_feature=17 7 3 28 29 22 29 29 28 15 5 29 22 23 7 6 17 6 23 27 9 28 15 12 3 22 3 28 25 25
split_gain=10.3596 7.87777 5.76408 5.65016 10.6091 8.93645 7.61177 7.78535 6.97192 8.72069 7.83936 6.15946 5.96554 6.55986 5.77367 8.2939 7.86613 10.6802 7.55264 6.82856 6.42473 6.99374 5.78565 5.72388 6.28669 5.66196 5.35507 5.25856 5.2267 8.68511
threshold=4.4930569333365361e-06 99.714691162109389 0.02349877010372026 0.13311868160963061 0.013645479921251537 499947.85500000004 0.010327106341719629 0.0060035234782844791 -0.139954999089241 0.39728409756707139 1.156049966812134 -0.0095520615577697737 294451.21500000003 14032768.933293169 82.799125671386733 0.81960564708021699 0.39355581269873396 0.11462512538723624 3081797.5105071045 -1.6261585950851438 0.60355339059327384 -0.078829094767570482 0.36489858396091734 36.083845138549812 0.015967047870862418 276556948.50000006 0.045488794613381692 0.020381786860525612 0.020727877505123619 0.0028403360629454259
decision_type=2 2 2 2 2 2 2 2 2 2 2 2 2 2 2 2 2 2 2 2 2 2 2 2 2 2 2 2 2 2
left_child=-1 3 -3 5 6 11 7 -5 9 10 23 -2 13 -13 16 19 22 -18 -19 -16 21 -21 -10 24 -7 26 28 -20 29 -23
right_child=1 2 -4 4 -6 8 -8 -9 14 -11 -12 12 -14 -15 15 -17 17 18 27 20 -22 25 -24 -25 -26 -27 -28 -29 -30 -31
leaf_value=0.023955334634391864 -0.041574354638817382 -0.0017695075301407696 0.03444954851574944 0.015666181121229746 -0.0053979910837140847 -0.0039426825496143734 0.036686312840359232 -0.013707600895195014 -0.016871839826408861 0.019880027646891212 0.023957732529944122 0.00077214113336221413 -0.037070850659840331 -0.029169401174831935 0.025317295041638783 -0.03234949183717932 -0.030447322676084715 -0.024685864656238177 -0.010237823668783799 -0.028205990827818897 0.0042016504352914682 -0.0079401065174358326 0.014022131478744843 0.012423106077943799 -0.034493808864028475 -0.021993423245779253 0.020692081384504044 0.015808175966810979 -0.01352735807631629 0.018147583889643749
